digraph Tree {
node [shape=box] ;
0 [label="Loc_10_2 <= 75.5\ngini = 0.5\nsamples = 7354\nvalue = [3677.0, 3677.0]"] ;
1 [label="month <= 7.5\ngini = 0.498\nsamples = 5235\nvalue = [2636.011, 2288.745]"] ;
0 -> 1 [labeldistance=2.5, labelangle=45, headlabel="True"] ;
2 [label="Loc_6_6 <= 8.5\ngini = 0.286\nsamples = 1972\nvalue = [1029.37, 215.742]"] ;
1 -> 2 ;
3 [label="WetBulb_y <= 61.5\ngini = 0.452\nsamples = 450\nvalue = [230.803, 121.941]"] ;
2 -> 3 ;
4 [label="gini = 0.0\nsamples = 142\nvalue = [74.998, 0.0]"] ;
3 -> 4 ;
5 [label="Block_3 <= 0.5\ngini = 0.493\nsamples = 308\nvalue = [155.805, 121.941]"] ;
3 -> 5 ;
6 [label="Loc_10_4 <= 2.5\ngini = 0.497\nsamples = 285\nvalue = [143.658, 121.941]"] ;
5 -> 6 ;
7 [label="gini = 0.0\nsamples = 27\nvalue = [14.26, 0.0]"] ;
6 -> 7 ;
8 [label="SeaLevel_y <= 29.815\ngini = 0.5\nsamples = 258\nvalue = [129.397, 121.941]"] ;
6 -> 8 ;
9 [label="gini = 0.0\nsamples = 40\nvalue = [21.126, 0.0]"] ;
8 -> 9 ;
10 [label="Trap_112 <= 0.5\ngini = 0.498\nsamples = 218\nvalue = [108.271, 121.941]"] ;
8 -> 10 ;
11 [label="Cool_y <= 12.5\ngini = 0.49\nsamples = 187\nvalue = [91.899, 121.941]"] ;
10 -> 11 ;
12 [label="Loc_4_10 <= 5.5\ngini = 0.458\nsamples = 108\nvalue = [51.759, 93.801]"] ;
11 -> 12 ;
13 [label="WetBulb_y <= 67.5\ngini = 0.378\nsamples = 21\nvalue = [9.507, 28.14]"] ;
12 -> 13 ;
14 [label="Cool_y <= 9.5\ngini = 0.355\nsamples = 19\nvalue = [8.45, 28.14]"] ;
13 -> 14 ;
15 [label="ResultSpeed_y <= 4.15\ngini = 0.446\nsamples = 10\nvalue = [4.753, 9.38]"] ;
14 -> 15 ;
16 [label="Trap_104 <= 0.5\ngini = 0.3\nsamples = 5\nvalue = [2.113, 9.38]"] ;
15 -> 16 ;
17 [label="gini = 0.0\nsamples = 1\nvalue = [0.528, 0.0]"] ;
16 -> 17 ;
18 [label="Species_3 <= 0.5\ngini = 0.247\nsamples = 4\nvalue = [1.584, 9.38]"] ;
16 -> 18 ;
19 [label="gini = 0.0\nsamples = 3\nvalue = [1.584, 0.0]"] ;
18 -> 19 ;
20 [label="gini = 0.0\nsamples = 1\nvalue = [0.0, 9.38]"] ;
18 -> 20 ;
21 [label="gini = 0.0\nsamples = 5\nvalue = [2.641, 0.0]"] ;
15 -> 21 ;
22 [label="Species_1 <= 0.5\ngini = 0.275\nsamples = 9\nvalue = [3.697, 18.76]"] ;
14 -> 22 ;
23 [label="Loc_8_2 <= 5.0\ngini = 0.216\nsamples = 7\nvalue = [2.641, 18.76]"] ;
22 -> 23 ;
24 [label="gini = 0.0\nsamples = 5\nvalue = [2.641, 0.0]"] ;
23 -> 24 ;
25 [label="gini = 0.0\nsamples = 2\nvalue = [0.0, 18.76]"] ;
23 -> 25 ;
26 [label="gini = 0.0\nsamples = 2\nvalue = [1.056, 0.0]"] ;
22 -> 26 ;
27 [label="gini = -0.0\nsamples = 2\nvalue = [1.056, 0.0]"] ;
13 -> 27 ;
28 [label="StnPressure_y <= 29.395\ngini = 0.476\nsamples = 87\nvalue = [42.252, 65.661]"] ;
12 -> 28 ;
29 [label="StnPressure_x <= 29.095\ngini = 0.459\nsamples = 76\nvalue = [36.443, 65.661]"] ;
28 -> 29 ;
30 [label="gini = 0.0\nsamples = 7\nvalue = [3.697, 0.0]"] ;
29 -> 30 ;
31 [label="Depart_x <= 2.0\ngini = 0.444\nsamples = 69\nvalue = [32.745, 65.661]"] ;
29 -> 31 ;
32 [label="Loc_2_8 <= 4.5\ngini = 0.499\nsamples = 20\nvalue = [10.035, 9.38]"] ;
31 -> 32 ;
33 [label="IsPipiens <= 0.25\ngini = 0.343\nsamples = 6\nvalue = [2.641, 9.38]"] ;
32 -> 33 ;
34 [label="gini = 0.0\nsamples = 1\nvalue = [0.528, 0.0]"] ;
33 -> 34 ;
35 [label="IsRestuans <= 0.25\ngini = 0.3\nsamples = 5\nvalue = [2.113, 9.38]"] ;
33 -> 35 ;
36 [label="gini = 0.0\nsamples = 1\nvalue = [0.528, 0.0]"] ;
35 -> 36 ;
37 [label="gini = 0.247\nsamples = 4\nvalue = [1.584, 9.38]"] ;
35 -> 37 ;
38 [label="gini = 0.0\nsamples = 14\nvalue = [7.394, 0.0]"] ;
32 -> 38 ;
39 [label="Loc_4_6 <= 3.5\ngini = 0.41\nsamples = 49\nvalue = [22.711, 56.281]"] ;
31 -> 39 ;
40 [label="gini = 0.0\nsamples = 1\nvalue = [0.528, 0.0]"] ;
39 -> 40 ;
41 [label="Loc_8_10 <= 12.5\ngini = 0.406\nsamples = 48\nvalue = [22.182, 56.281]"] ;
39 -> 41 ;
42 [label="Loc_2_10 <= 8.5\ngini = 0.388\nsamples = 44\nvalue = [20.07, 56.281]"] ;
41 -> 42 ;
43 [label="IsPipiensRestuans <= 0.5\ngini = 0.411\nsamples = 41\nvalue = [19.014, 46.901]"] ;
42 -> 43 ;
44 [label="Species_1 <= 0.5\ngini = 0.461\nsamples = 33\nvalue = [15.845, 28.14]"] ;
43 -> 44 ;
45 [label="gini = 0.0\nsamples = 1\nvalue = [0.528, 0.0]"] ;
44 -> 45 ;
46 [label="gini = 0.456\nsamples = 32\nvalue = [15.316, 28.14]"] ;
44 -> 46 ;
47 [label="Sunset_x <= 1921.0\ngini = 0.247\nsamples = 8\nvalue = [3.169, 18.76]"] ;
43 -> 47 ;
48 [label="gini = 0.216\nsamples = 7\nvalue = [2.641, 18.76]"] ;
47 -> 48 ;
49 [label="gini = 0.0\nsamples = 1\nvalue = [0.528, 0.0]"] ;
47 -> 49 ;
50 [label="IsRestuans <= 0.25\ngini = 0.182\nsamples = 3\nvalue = [1.056, 9.38]"] ;
42 -> 50 ;
51 [label="gini = 0.0\nsamples = 1\nvalue = [0.528, 0.0]"] ;
50 -> 51 ;
52 [label="IsPipiensRestuans <= 0.5\ngini = 0.101\nsamples = 2\nvalue = [0.528, 9.38]"] ;
50 -> 52 ;
53 [label="gini = 0.0\nsamples = 1\nvalue = [0.528, 0.0]"] ;
52 -> 53 ;
54 [label="gini = 0.0\nsamples = 1\nvalue = [0.0, 9.38]"] ;
52 -> 54 ;
55 [label="gini = 0.0\nsamples = 4\nvalue = [2.113, 0.0]"] ;
41 -> 55 ;
56 [label="gini = 0.0\nsamples = 11\nvalue = [5.81, 0.0]"] ;
28 -> 56 ;
57 [label="Loc_4_6 <= 4.5\ngini = 0.485\nsamples = 79\nvalue = [40.14, 28.14]"] ;
11 -> 57 ;
58 [label="gini = 0.0\nsamples = 35\nvalue = [18.485, 0.0]"] ;
57 -> 58 ;
59 [label="ResultDir_y <= 23.0\ngini = 0.492\nsamples = 44\nvalue = [21.654, 28.14]"] ;
57 -> 59 ;
60 [label="gini = -0.0\nsamples = 23\nvalue = [12.148, 0.0]"] ;
59 -> 60 ;
61 [label="IsPipiensRestuans <= 0.5\ngini = 0.378\nsamples = 21\nvalue = [9.507, 28.14]"] ;
59 -> 61 ;
62 [label="Block_24 <= 0.5\ngini = 0.247\nsamples = 12\nvalue = [4.753, 28.14]"] ;
61 -> 62 ;
63 [label="IsOther <= 0.5\ngini = 0.205\nsamples = 10\nvalue = [3.697, 28.14]"] ;
62 -> 63 ;
64 [label="IsRestuans <= 0.5\ngini = 0.182\nsamples = 9\nvalue = [3.169, 28.14]"] ;
63 -> 64 ;
65 [label="gini = 0.0\nsamples = 2\nvalue = [1.056, 0.0]"] ;
64 -> 65 ;
66 [label="Sunrise_x <= 435.5\ngini = 0.13\nsamples = 7\nvalue = [2.113, 28.14]"] ;
64 -> 66 ;
67 [label="Loc_10_6 <= 18.5\ngini = 0.144\nsamples = 5\nvalue = [1.584, 18.76]"] ;
66 -> 67 ;
68 [label="gini = 0.0\nsamples = 1\nvalue = [0.0, 9.38]"] ;
67 -> 68 ;
69 [label="gini = 0.247\nsamples = 4\nvalue = [1.584, 9.38]"] ;
67 -> 69 ;
70 [label="Loc_8_6 <= 15.5\ngini = 0.101\nsamples = 2\nvalue = [0.528, 9.38]"] ;
66 -> 70 ;
71 [label="gini = 0.0\nsamples = 1\nvalue = [0.528, 0.0]"] ;
70 -> 71 ;
72 [label="gini = 0.0\nsamples = 1\nvalue = [0.0, 9.38]"] ;
70 -> 72 ;
73 [label="gini = 0.0\nsamples = 1\nvalue = [0.528, 0.0]"] ;
63 -> 73 ;
74 [label="gini = -0.0\nsamples = 2\nvalue = [1.056, 0.0]"] ;
62 -> 74 ;
75 [label="gini = -0.0\nsamples = 9\nvalue = [4.753, 0.0]"] ;
61 -> 75 ;
76 [label="gini = -0.0\nsamples = 31\nvalue = [16.373, 0.0]"] ;
10 -> 76 ;
77 [label="gini = 0.0\nsamples = 23\nvalue = [12.148, 0.0]"] ;
5 -> 77 ;
78 [label="WetBulb_y <= 74.5\ngini = 0.188\nsamples = 1522\nvalue = [798.567, 93.801]"] ;
2 -> 78 ;
79 [label="Loc_8_2 <= 24.5\ngini = 0.128\nsamples = 1449\nvalue = [762.125, 56.281]"] ;
78 -> 79 ;
80 [label="Latitude_std <= -0.364\ngini = 0.23\nsamples = 586\nvalue = [306.857, 46.901]"] ;
79 -> 80 ;
81 [label="Street_52 <= 0.5\ngini = 0.166\nsamples = 534\nvalue = [280.449, 28.14]"] ;
80 -> 81 ;
82 [label="Loc_10_4 <= 22.5\ngini = 0.123\nsamples = 504\nvalue = [265.133, 18.76]"] ;
81 -> 82 ;
83 [label="AvgSpeed_x <= 10.85\ngini = 0.288\nsamples = 85\nvalue = [44.365, 9.38]"] ;
82 -> 83 ;
84 [label="gini = -0.0\nsamples = 75\nvalue = [39.611, 0.0]"] ;
83 -> 84 ;
85 [label="SeaLevel_y <= 29.65\ngini = 0.446\nsamples = 10\nvalue = [4.753, 9.38]"] ;
83 -> 85 ;
86 [label="Loc_8_10 <= 14.5\ngini = 0.182\nsamples = 3\nvalue = [1.056, 9.38]"] ;
85 -> 86 ;
87 [label="gini = 0.0\nsamples = 1\nvalue = [0.0, 9.38]"] ;
86 -> 87 ;
88 [label="gini = 0.0\nsamples = 2\nvalue = [1.056, 0.0]"] ;
86 -> 88 ;
89 [label="gini = 0.0\nsamples = 7\nvalue = [3.697, 0.0]"] ;
85 -> 89 ;
90 [label="SeaLevel_x <= 30.095\ngini = 0.078\nsamples = 419\nvalue = [220.768, 9.38]"] ;
82 -> 90 ;
91 [label="gini = 0.0\nsamples = 391\nvalue = [206.508, 0.0]"] ;
90 -> 91 ;
92 [label="Loc_6_4 <= 14.5\ngini = 0.479\nsamples = 28\nvalue = [14.26, 9.38]"] ;
90 -> 92 ;
93 [label="gini = 0.0\nsamples = 25\nvalue = [13.204, 0.0]"] ;
92 -> 93 ;
94 [label="IsPipiensRestuans <= 0.5\ngini = 0.182\nsamples = 3\nvalue = [1.056, 9.38]"] ;
92 -> 94 ;
95 [label="Loc_2_10 <= 7.5\ngini = 0.101\nsamples = 2\nvalue = [0.528, 9.38]"] ;
94 -> 95 ;
96 [label="gini = 0.0\nsamples = 1\nvalue = [0.528, 0.0]"] ;
95 -> 96 ;
97 [label="gini = 0.0\nsamples = 1\nvalue = [0.0, 9.38]"] ;
95 -> 97 ;
98 [label="gini = 0.0\nsamples = 1\nvalue = [0.528, 0.0]"] ;
94 -> 98 ;
99 [label="year <= 2012.0\ngini = 0.471\nsamples = 30\nvalue = [15.316, 9.38]"] ;
81 -> 99 ;
100 [label="gini = 0.0\nsamples = 24\nvalue = [12.676, 0.0]"] ;
99 -> 100 ;
101 [label="AvgSpeed_y <= 7.3\ngini = 0.343\nsamples = 6\nvalue = [2.641, 9.38]"] ;
99 -> 101 ;
102 [label="WetBulb_y <= 61.0\ngini = 0.182\nsamples = 3\nvalue = [1.056, 9.38]"] ;
101 -> 102 ;
103 [label="gini = 0.0\nsamples = 1\nvalue = [0.528, 0.0]"] ;
102 -> 103 ;
104 [label="IsRestuans <= 0.75\ngini = 0.101\nsamples = 2\nvalue = [0.528, 9.38]"] ;
102 -> 104 ;
105 [label="gini = 0.0\nsamples = 1\nvalue = [0.0, 9.38]"] ;
104 -> 105 ;
106 [label="gini = 0.0\nsamples = 1\nvalue = [0.528, 0.0]"] ;
104 -> 106 ;
107 [label="gini = 0.0\nsamples = 3\nvalue = [1.584, 0.0]"] ;
101 -> 107 ;
108 [label="year <= 2012.0\ngini = 0.486\nsamples = 52\nvalue = [26.408, 18.76]"] ;
80 -> 108 ;
109 [label="ResultDir_x <= 23.5\ngini = 0.495\nsamples = 45\nvalue = [22.711, 18.76]"] ;
108 -> 109 ;
110 [label="Tmin_y <= 59.0\ngini = 0.477\nsamples = 25\nvalue = [12.148, 18.76]"] ;
109 -> 110 ;
111 [label="gini = 0.0\nsamples = 9\nvalue = [4.753, 0.0]"] ;
110 -> 111 ;
112 [label="Species_1 <= 0.5\ngini = 0.406\nsamples = 16\nvalue = [7.394, 18.76]"] ;
110 -> 112 ;
113 [label="Tmax_y <= 87.0\ngini = 0.392\nsamples = 15\nvalue = [6.866, 18.76]"] ;
112 -> 113 ;
114 [label="Tavg_y <= 74.5\ngini = 0.343\nsamples = 12\nvalue = [5.282, 18.76]"] ;
113 -> 114 ;
115 [label="Species_6 <= 0.5\ngini = 0.182\nsamples = 3\nvalue = [1.056, 9.38]"] ;
114 -> 115 ;
116 [label="IsRestuans <= 0.75\ngini = 0.101\nsamples = 2\nvalue = [0.528, 9.38]"] ;
115 -> 116 ;
117 [label="gini = 0.0\nsamples = 1\nvalue = [0.0, 9.38]"] ;
116 -> 117 ;
118 [label="gini = 0.0\nsamples = 1\nvalue = [0.528, 0.0]"] ;
116 -> 118 ;
119 [label="gini = 0.0\nsamples = 1\nvalue = [0.528, 0.0]"] ;
115 -> 119 ;
120 [label="Cool_y <= 14.5\ngini = 0.428\nsamples = 9\nvalue = [4.225, 9.38]"] ;
114 -> 120 ;
121 [label="gini = 0.0\nsamples = 4\nvalue = [2.113, 0.0]"] ;
120 -> 121 ;
122 [label="IsOther <= 0.5\ngini = 0.3\nsamples = 5\nvalue = [2.113, 9.38]"] ;
120 -> 122 ;
123 [label="IsPipiensRestuans <= 0.5\ngini = 0.247\nsamples = 4\nvalue = [1.584, 9.38]"] ;
122 -> 123 ;
124 [label="gini = 0.0\nsamples = 1\nvalue = [0.528, 0.0]"] ;
123 -> 124 ;
125 [label="gini = 0.182\nsamples = 3\nvalue = [1.056, 9.38]"] ;
123 -> 125 ;
126 [label="gini = 0.0\nsamples = 1\nvalue = [0.528, 0.0]"] ;
122 -> 126 ;
127 [label="gini = 0.0\nsamples = 3\nvalue = [1.584, 0.0]"] ;
113 -> 127 ;
128 [label="gini = 0.0\nsamples = 1\nvalue = [0.528, 0.0]"] ;
112 -> 128 ;
129 [label="gini = -0.0\nsamples = 20\nvalue = [10.563, 0.0]"] ;
109 -> 129 ;
130 [label="gini = -0.0\nsamples = 7\nvalue = [3.697, 0.0]"] ;
108 -> 130 ;
131 [label="PrecipTotal_x <= 0.61\ngini = 0.04\nsamples = 863\nvalue = [455.268, 9.38]"] ;
79 -> 131 ;
132 [label="gini = 0.0\nsamples = 731\nvalue = [386.08, 0.0]"] ;
131 -> 132 ;
133 [label="ResultSpeed_y <= 4.8\ngini = 0.21\nsamples = 132\nvalue = [69.188, 9.38]"] ;
131 -> 133 ;
134 [label="Species_3 <= 0.5\ngini = 0.451\nsamples = 35\nvalue = [17.957, 9.38]"] ;
133 -> 134 ;
135 [label="gini = 0.0\nsamples = 22\nvalue = [11.619, 0.0]"] ;
134 -> 135 ;
136 [label="Street_46 <= 0.5\ngini = 0.481\nsamples = 13\nvalue = [6.338, 9.38]"] ;
134 -> 136 ;
137 [label="gini = 0.0\nsamples = 12\nvalue = [6.338, 0.0]"] ;
136 -> 137 ;
138 [label="gini = 0.0\nsamples = 1\nvalue = [0.0, 9.38]"] ;
136 -> 138 ;
139 [label="gini = 0.0\nsamples = 97\nvalue = [51.231, 0.0]"] ;
133 -> 139 ;
140 [label="Loc_8_6 <= 23.5\ngini = 0.5\nsamples = 73\nvalue = [36.443, 37.52]"] ;
78 -> 140 ;
141 [label="gini = 0.0\nsamples = 30\nvalue = [15.845, 0.0]"] ;
140 -> 141 ;
142 [label="Loc_10_8 <= 72.5\ngini = 0.458\nsamples = 43\nvalue = [20.598, 37.52]"] ;
140 -> 142 ;
143 [label="Loc_2_10 <= 7.5\ngini = 0.423\nsamples = 35\nvalue = [16.373, 37.52]"] ;
142 -> 143 ;
144 [label="Loc_4_8 <= 11.0\ngini = 0.385\nsamples = 29\nvalue = [13.204, 37.52]"] ;
143 -> 144 ;
145 [label="Loc_2_10 <= 6.5\ngini = 0.343\nsamples = 18\nvalue = [7.922, 28.14]"] ;
144 -> 145 ;
146 [label="Loc_10_8 <= 58.5\ngini = 0.315\nsamples = 16\nvalue = [6.866, 28.14]"] ;
145 -> 146 ;
147 [label="Block_59 <= 0.5\ngini = 0.343\nsamples = 12\nvalue = [5.282, 18.76]"] ;
146 -> 147 ;
148 [label="Lat_int <= 4179.5\ngini = 0.406\nsamples = 8\nvalue = [3.697, 9.38]"] ;
147 -> 148 ;
149 [label="gini = 0.0\nsamples = 2\nvalue = [1.056, 0.0]"] ;
148 -> 149 ;
150 [label="Loc_10_4 <= 41.5\ngini = 0.343\nsamples = 6\nvalue = [2.641, 9.38]"] ;
148 -> 150 ;
151 [label="IsPipiensRestuans <= 0.5\ngini = 0.101\nsamples = 2\nvalue = [0.528, 9.38]"] ;
150 -> 151 ;
152 [label="gini = 0.0\nsamples = 1\nvalue = [0.528, 0.0]"] ;
151 -> 152 ;
153 [label="gini = 0.0\nsamples = 1\nvalue = [0.0, 9.38]"] ;
151 -> 153 ;
154 [label="gini = -0.0\nsamples = 4\nvalue = [2.113, 0.0]"] ;
150 -> 154 ;
155 [label="Species_2 <= 0.5\ngini = 0.247\nsamples = 4\nvalue = [1.584, 9.38]"] ;
147 -> 155 ;
156 [label="IsPipiens <= 0.5\ngini = 0.182\nsamples = 3\nvalue = [1.056, 9.38]"] ;
155 -> 156 ;
157 [label="gini = 0.101\nsamples = 2\nvalue = [0.528, 9.38]"] ;
156 -> 157 ;
158 [label="gini = 0.0\nsamples = 1\nvalue = [0.528, 0.0]"] ;
156 -> 158 ;
159 [label="gini = 0.0\nsamples = 1\nvalue = [0.528, 0.0]"] ;
155 -> 159 ;
160 [label="Lat_int <= 4191.5\ngini = 0.247\nsamples = 4\nvalue = [1.584, 9.38]"] ;
146 -> 160 ;
161 [label="gini = 0.0\nsamples = 2\nvalue = [1.056, 0.0]"] ;
160 -> 161 ;
162 [label="IsPipiensRestuans <= 0.5\ngini = 0.101\nsamples = 2\nvalue = [0.528, 9.38]"] ;
160 -> 162 ;
163 [label="gini = 0.0\nsamples = 1\nvalue = [0.528, 0.0]"] ;
162 -> 163 ;
164 [label="gini = 0.0\nsamples = 1\nvalue = [0.0, 9.38]"] ;
162 -> 164 ;
165 [label="gini = -0.0\nsamples = 2\nvalue = [1.056, 0.0]"] ;
145 -> 165 ;
166 [label="Block_16 <= 0.5\ngini = 0.461\nsamples = 11\nvalue = [5.282, 9.38]"] ;
144 -> 166 ;
167 [label="IsPipiens <= 0.25\ngini = 0.446\nsamples = 10\nvalue = [4.753, 9.38]"] ;
166 -> 167 ;
168 [label="gini = 0.0\nsamples = 5\nvalue = [2.641, 0.0]"] ;
167 -> 168 ;
169 [label="gini = 0.3\nsamples = 5\nvalue = [2.113, 9.38]"] ;
167 -> 169 ;
170 [label="gini = 0.0\nsamples = 1\nvalue = [0.528, 0.0]"] ;
166 -> 170 ;
171 [label="gini = -0.0\nsamples = 6\nvalue = [3.169, 0.0]"] ;
143 -> 171 ;
172 [label="gini = -0.0\nsamples = 8\nvalue = [4.225, 0.0]"] ;
142 -> 172 ;
173 [label="Street_42 <= 0.5\ngini = 0.492\nsamples = 3263\nvalue = [1606.641, 2073.003]"] ;
1 -> 173 ;
174 [label="day_of_year <= 253.0\ngini = 0.492\nsamples = 3245\nvalue = [1597.134, 2073.003]"] ;
173 -> 174 ;
175 [label="Species_6 <= 0.5\ngini = 0.473\nsamples = 2458\nvalue = [1190.456, 1913.541]"] ;
174 -> 175 ;
176 [label="ResultSpeed_x <= 3.55\ngini = 0.47\nsamples = 2396\nvalue = [1157.711, 1913.541]"] ;
175 -> 176 ;
177 [label="PrecipTotal_y <= 0.225\ngini = 0.498\nsamples = 861\nvalue = [427.804, 478.385]"] ;
176 -> 177 ;
178 [label="Species_3 <= 0.5\ngini = 0.479\nsamples = 613\nvalue = [312.138, 206.362]"] ;
177 -> 178 ;
179 [label="Loc_8_10 <= 28.5\ngini = 0.493\nsamples = 521\nvalue = [263.548, 206.362]"] ;
178 -> 179 ;
180 [label="ResultSpeed_x <= 1.65\ngini = 0.5\nsamples = 344\nvalue = [172.178, 168.842]"] ;
179 -> 180 ;
181 [label="gini = 0.0\nsamples = 19\nvalue = [10.035, 0.0]"] ;
180 -> 181 ;
182 [label="Block_57 <= 0.5\ngini = 0.5\nsamples = 325\nvalue = [162.143, 168.842]"] ;
180 -> 182 ;
183 [label="Long_int <= -8774.5\ngini = 0.5\nsamples = 321\nvalue = [160.558, 159.462]"] ;
182 -> 183 ;
184 [label="gini = 0.0\nsamples = 32\nvalue = [16.901, 0.0]"] ;
183 -> 184 ;
185 [label="Street_59 <= 0.5\ngini = 0.499\nsamples = 289\nvalue = [143.658, 159.462]"] ;
183 -> 185 ;
186 [label="Longitude_std <= -0.17\ngini = 0.488\nsamples = 223\nvalue = [109.328, 150.082]"] ;
185 -> 186 ;
187 [label="Latitude_std <= -0.491\ngini = 0.318\nsamples = 27\nvalue = [11.619, 46.901]"] ;
186 -> 187 ;
188 [label="Lat_int <= 4175.5\ngini = 0.378\nsamples = 21\nvalue = [9.507, 28.14]"] ;
187 -> 188 ;
189 [label="ResultDir_x <= 11.5\ngini = 0.33\nsamples = 17\nvalue = [7.394, 28.14]"] ;
188 -> 189 ;
190 [label="Loc_8_2 <= 8.5\ngini = 0.266\nsamples = 13\nvalue = [5.282, 28.14]"] ;
189 -> 190 ;
191 [label="DewPoint_x <= 52.0\ngini = 0.216\nsamples = 7\nvalue = [2.641, 18.76]"] ;
190 -> 191 ;
192 [label="gini = 0.0\nsamples = 3\nvalue = [1.584, 0.0]"] ;
191 -> 192 ;
193 [label="Species_2 <= 0.5\ngini = 0.101\nsamples = 4\nvalue = [1.056, 18.76]"] ;
191 -> 193 ;
194 [label="gini = 0.101\nsamples = 2\nvalue = [0.528, 9.38]"] ;
193 -> 194 ;
195 [label="gini = 0.101\nsamples = 2\nvalue = [0.528, 9.38]"] ;
193 -> 195 ;
196 [label="Depart_x <= 0.0\ngini = 0.343\nsamples = 6\nvalue = [2.641, 9.38]"] ;
190 -> 196 ;
197 [label="IsRestuans <= 0.25\ngini = 0.101\nsamples = 2\nvalue = [0.528, 9.38]"] ;
196 -> 197 ;
198 [label="gini = 0.0\nsamples = 1\nvalue = [0.528, 0.0]"] ;
197 -> 198 ;
199 [label="gini = 0.0\nsamples = 1\nvalue = [0.0, 9.38]"] ;
197 -> 199 ;
200 [label="gini = -0.0\nsamples = 4\nvalue = [2.113, 0.0]"] ;
196 -> 200 ;
201 [label="gini = -0.0\nsamples = 4\nvalue = [2.113, 0.0]"] ;
189 -> 201 ;
202 [label="gini = -0.0\nsamples = 4\nvalue = [2.113, 0.0]"] ;
188 -> 202 ;
203 [label="Tmax_x <= 87.5\ngini = 0.182\nsamples = 6\nvalue = [2.113, 18.76]"] ;
187 -> 203 ;
204 [label="Tavg_y <= 64.0\ngini = 0.053\nsamples = 3\nvalue = [0.528, 18.76]"] ;
203 -> 204 ;
205 [label="IsPipiens <= 0.75\ngini = 0.101\nsamples = 2\nvalue = [0.528, 9.38]"] ;
204 -> 205 ;
206 [label="gini = 0.0\nsamples = 1\nvalue = [0.0, 9.38]"] ;
205 -> 206 ;
207 [label="gini = 0.0\nsamples = 1\nvalue = [0.528, 0.0]"] ;
205 -> 207 ;
208 [label="gini = 0.0\nsamples = 1\nvalue = [0.0, 9.38]"] ;
204 -> 208 ;
209 [label="gini = 0.0\nsamples = 3\nvalue = [1.584, 0.0]"] ;
203 -> 209 ;
210 [label="Species_2 <= 0.5\ngini = 0.5\nsamples = 196\nvalue = [97.708, 103.181]"] ;
186 -> 210 ;
211 [label="Loc_8_8 <= 12.5\ngini = 0.487\nsamples = 102\nvalue = [51.759, 37.52]"] ;
210 -> 211 ;
212 [label="gini = 0.0\nsamples = 17\nvalue = [8.979, 0.0]"] ;
211 -> 212 ;
213 [label="Trap_48 <= 0.5\ngini = 0.498\nsamples = 85\nvalue = [42.78, 37.52]"] ;
211 -> 213 ;
214 [label="Cool_x <= 15.5\ngini = 0.499\nsamples = 81\nvalue = [40.668, 37.52]"] ;
213 -> 214 ;
215 [label="Latitude_std <= -1.021\ngini = 0.497\nsamples = 49\nvalue = [24.295, 28.14]"] ;
214 -> 215 ;
216 [label="gini = 0.0\nsamples = 12\nvalue = [6.338, 0.0]"] ;
215 -> 216 ;
217 [label="Loc_6_8 <= 17.5\ngini = 0.476\nsamples = 37\nvalue = [17.957, 28.14]"] ;
215 -> 217 ;
218 [label="ResultDir_y <= 4.5\ngini = 0.499\nsamples = 35\nvalue = [17.429, 18.76]"] ;
217 -> 218 ;
219 [label="gini = 0.477\nsamples = 25\nvalue = [12.148, 18.76]"] ;
218 -> 219 ;
220 [label="gini = -0.0\nsamples = 10\nvalue = [5.282, 0.0]"] ;
218 -> 220 ;
221 [label="Block_0 <= 0.5\ngini = 0.101\nsamples = 2\nvalue = [0.528, 9.38]"] ;
217 -> 221 ;
222 [label="gini = 0.0\nsamples = 1\nvalue = [0.528, 0.0]"] ;
221 -> 222 ;
223 [label="gini = 0.0\nsamples = 1\nvalue = [0.0, 9.38]"] ;
221 -> 223 ;
224 [label="Loc_4_8 <= 5.5\ngini = 0.463\nsamples = 32\nvalue = [16.373, 9.38]"] ;
214 -> 224 ;
225 [label="Trap_74 <= 0.5\ngini = 0.428\nsamples = 9\nvalue = [4.225, 9.38]"] ;
224 -> 225 ;
226 [label="gini = -0.0\nsamples = 6\nvalue = [3.169, 0.0]"] ;
225 -> 226 ;
227 [label="Species_4 <= 0.5\ngini = 0.182\nsamples = 3\nvalue = [1.056, 9.38]"] ;
225 -> 227 ;
228 [label="gini = 0.101\nsamples = 2\nvalue = [0.528, 9.38]"] ;
227 -> 228 ;
229 [label="gini = 0.0\nsamples = 1\nvalue = [0.528, 0.0]"] ;
227 -> 229 ;
230 [label="gini = 0.0\nsamples = 23\nvalue = [12.148, 0.0]"] ;
224 -> 230 ;
231 [label="gini = 0.0\nsamples = 4\nvalue = [2.113, 0.0]"] ;
213 -> 231 ;
232 [label="week_of_year <= 31.5\ngini = 0.484\nsamples = 94\nvalue = [45.949, 65.661]"] ;
210 -> 232 ;
233 [label="Loc_2_6 <= 4.5\ngini = 0.442\nsamples = 68\nvalue = [32.217, 65.661]"] ;
232 -> 233 ;
234 [label="Loc_6_2 <= 4.0\ngini = 0.5\nsamples = 39\nvalue = [19.542, 18.76]"] ;
233 -> 234 ;
235 [label="Loc_2_6 <= 3.5\ngini = 0.378\nsamples = 7\nvalue = [3.169, 9.38]"] ;
234 -> 235 ;
236 [label="gini = 0.343\nsamples = 6\nvalue = [2.641, 9.38]"] ;
235 -> 236 ;
237 [label="gini = 0.0\nsamples = 1\nvalue = [0.528, 0.0]"] ;
235 -> 237 ;
238 [label="Trap_52 <= 0.5\ngini = 0.463\nsamples = 32\nvalue = [16.373, 9.38]"] ;
234 -> 238 ;
239 [label="gini = 0.0\nsamples = 28\nvalue = [14.788, 0.0]"] ;
238 -> 239 ;
240 [label="StnPressure_x <= 29.235\ngini = 0.247\nsamples = 4\nvalue = [1.584, 9.38]"] ;
238 -> 240 ;
241 [label="gini = 0.0\nsamples = 1\nvalue = [0.0, 9.38]"] ;
240 -> 241 ;
242 [label="gini = 0.0\nsamples = 3\nvalue = [1.584, 0.0]"] ;
240 -> 242 ;
243 [label="Loc_10_8 <= 26.5\ngini = 0.335\nsamples = 29\nvalue = [12.676, 46.901]"] ;
233 -> 243 ;
244 [label="Loc_6_2 <= 4.0\ngini = 0.29\nsamples = 24\nvalue = [10.035, 46.901]"] ;
243 -> 244 ;
245 [label="Lat_int <= 4169.0\ngini = 0.182\nsamples = 12\nvalue = [4.225, 37.52]"] ;
244 -> 245 ;
246 [label="gini = 0.0\nsamples = 2\nvalue = [1.056, 0.0]"] ;
245 -> 246 ;
247 [label="Tavg_x <= 80.5\ngini = 0.144\nsamples = 10\nvalue = [3.169, 37.52]"] ;
245 -> 247 ;
248 [label="Block_1 <= 0.5\ngini = 0.182\nsamples = 3\nvalue = [1.056, 9.38]"] ;
247 -> 248 ;
249 [label="gini = 0.0\nsamples = 1\nvalue = [0.0, 9.38]"] ;
248 -> 249 ;
250 [label="gini = 0.0\nsamples = 2\nvalue = [1.056, 0.0]"] ;
248 -> 250 ;
251 [label="Trap_83 <= 0.5\ngini = 0.13\nsamples = 7\nvalue = [2.113, 28.14]"] ;
247 -> 251 ;
252 [label="gini = 0.07\nsamples = 5\nvalue = [1.056, 28.14]"] ;
251 -> 252 ;
253 [label="gini = 0.0\nsamples = 2\nvalue = [1.056, 0.0]"] ;
251 -> 253 ;
254 [label="SeaLevel_y <= 29.895\ngini = 0.472\nsamples = 12\nvalue = [5.81, 9.38]"] ;
244 -> 254 ;
255 [label="gini = 0.0\nsamples = 4\nvalue = [2.113, 0.0]"] ;
254 -> 255 ;
256 [label="Latitude_std <= -1.003\ngini = 0.406\nsamples = 8\nvalue = [3.697, 9.38]"] ;
254 -> 256 ;
257 [label="Trap_86 <= 0.5\ngini = 0.343\nsamples = 6\nvalue = [2.641, 9.38]"] ;
256 -> 257 ;
258 [label="gini = 0.0\nsamples = 1\nvalue = [0.528, 0.0]"] ;
257 -> 258 ;
259 [label="gini = 0.3\nsamples = 5\nvalue = [2.113, 9.38]"] ;
257 -> 259 ;
260 [label="gini = 0.0\nsamples = 2\nvalue = [1.056, 0.0]"] ;
256 -> 260 ;
261 [label="gini = -0.0\nsamples = 5\nvalue = [2.641, 0.0]"] ;
243 -> 261 ;
262 [label="gini = 0.0\nsamples = 26\nvalue = [13.732, 0.0]"] ;
232 -> 262 ;
263 [label="AvgSpeed_x <= 6.25\ngini = 0.337\nsamples = 66\nvalue = [34.33, 9.38]"] ;
185 -> 263 ;
264 [label="gini = -0.0\nsamples = 40\nvalue = [21.126, 0.0]"] ;
263 -> 264 ;
265 [label="IsPipiensRestuans <= 0.5\ngini = 0.486\nsamples = 26\nvalue = [13.204, 9.38]"] ;
263 -> 265 ;
266 [label="gini = 0.497\nsamples = 22\nvalue = [11.091, 9.38]"] ;
265 -> 266 ;
267 [label="gini = 0.0\nsamples = 4\nvalue = [2.113, 0.0]"] ;
265 -> 267 ;
268 [label="IsPipiens <= 0.75\ngini = 0.247\nsamples = 4\nvalue = [1.584, 9.38]"] ;
182 -> 268 ;
269 [label="day_of_month <= 22.5\ngini = 0.182\nsamples = 3\nvalue = [1.056, 9.38]"] ;
268 -> 269 ;
270 [label="gini = 0.0\nsamples = 2\nvalue = [1.056, 0.0]"] ;
269 -> 270 ;
271 [label="gini = 0.0\nsamples = 1\nvalue = [0.0, 9.38]"] ;
269 -> 271 ;
272 [label="gini = 0.0\nsamples = 1\nvalue = [0.528, 0.0]"] ;
268 -> 272 ;
273 [label="Loc_2_2 <= 2.5\ngini = 0.413\nsamples = 177\nvalue = [91.37, 37.52]"] ;
179 -> 273 ;
274 [label="SeaLevel_y <= 30.04\ngini = 0.489\nsamples = 75\nvalue = [38.027, 28.14]"] ;
273 -> 274 ;
275 [label="Tavg_x <= 73.5\ngini = 0.5\nsamples = 57\nvalue = [28.52, 28.14]"] ;
274 -> 275 ;
276 [label="gini = 0.0\nsamples = 8\nvalue = [4.225, 0.0]"] ;
275 -> 276 ;
277 [label="StnPressure_x <= 29.23\ngini = 0.497\nsamples = 49\nvalue = [24.295, 28.14]"] ;
275 -> 277 ;
278 [label="gini = 0.0\nsamples = 9\nvalue = [4.753, 0.0]"] ;
277 -> 278 ;
279 [label="Block_10 <= 0.5\ngini = 0.484\nsamples = 40\nvalue = [19.542, 28.14]"] ;
277 -> 279 ;
280 [label="Loc_10_8 <= 72.5\ngini = 0.472\nsamples = 36\nvalue = [17.429, 28.14]"] ;
279 -> 280 ;
281 [label="Loc_8_10 <= 30.5\ngini = 0.452\nsamples = 31\nvalue = [14.788, 28.14]"] ;
280 -> 281 ;
282 [label="gini = 0.0\nsamples = 9\nvalue = [4.753, 0.0]"] ;
281 -> 282 ;
283 [label="Loc_4_8 <= 9.5\ngini = 0.388\nsamples = 22\nvalue = [10.035, 28.14]"] ;
281 -> 283 ;
284 [label="Species_2 <= 0.5\ngini = 0.182\nsamples = 3\nvalue = [1.056, 9.38]"] ;
283 -> 284 ;
285 [label="gini = 0.0\nsamples = 1\nvalue = [0.528, 0.0]"] ;
284 -> 285 ;
286 [label="gini = 0.101\nsamples = 2\nvalue = [0.528, 9.38]"] ;
284 -> 286 ;
287 [label="Loc_10_2 <= 55.5\ngini = 0.438\nsamples = 19\nvalue = [8.979, 18.76]"] ;
283 -> 287 ;
288 [label="gini = 0.0\nsamples = 4\nvalue = [2.113, 0.0]"] ;
287 -> 288 ;
289 [label="Tmax_y <= 90.5\ngini = 0.392\nsamples = 15\nvalue = [6.866, 18.76]"] ;
287 -> 289 ;
290 [label="Loc_4_8 <= 12.0\ngini = 0.3\nsamples = 5\nvalue = [2.113, 9.38]"] ;
289 -> 290 ;
291 [label="Street_110 <= 0.5\ngini = 0.182\nsamples = 3\nvalue = [1.056, 9.38]"] ;
290 -> 291 ;
292 [label="gini = 0.0\nsamples = 1\nvalue = [0.0, 9.38]"] ;
291 -> 292 ;
293 [label="gini = 0.0\nsamples = 2\nvalue = [1.056, 0.0]"] ;
291 -> 293 ;
294 [label="gini = 0.0\nsamples = 2\nvalue = [1.056, 0.0]"] ;
290 -> 294 ;
295 [label="Species_2 <= 0.5\ngini = 0.446\nsamples = 10\nvalue = [4.753, 9.38]"] ;
289 -> 295 ;
296 [label="Loc_4_10 <= 13.0\ngini = 0.247\nsamples = 4\nvalue = [1.584, 9.38]"] ;
295 -> 296 ;
297 [label="gini = 0.0\nsamples = 2\nvalue = [1.056, 0.0]"] ;
296 -> 297 ;
298 [label="gini = 0.101\nsamples = 2\nvalue = [0.528, 9.38]"] ;
296 -> 298 ;
299 [label="gini = -0.0\nsamples = 6\nvalue = [3.169, 0.0]"] ;
295 -> 299 ;
300 [label="gini = -0.0\nsamples = 5\nvalue = [2.641, 0.0]"] ;
280 -> 300 ;
301 [label="gini = -0.0\nsamples = 4\nvalue = [2.113, 0.0]"] ;
279 -> 301 ;
302 [label="gini = 0.0\nsamples = 18\nvalue = [9.507, 0.0]"] ;
274 -> 302 ;
303 [label="Loc_4_8 <= 12.5\ngini = 0.254\nsamples = 102\nvalue = [53.343, 9.38]"] ;
273 -> 303 ;
304 [label="gini = 0.0\nsamples = 51\nvalue = [26.936, 0.0]"] ;
303 -> 304 ;
305 [label="Loc_8_6 <= 35.5\ngini = 0.387\nsamples = 51\nvalue = [26.408, 9.38]"] ;
303 -> 305 ;
306 [label="Species_1 <= 0.5\ngini = 0.461\nsamples = 11\nvalue = [5.282, 9.38]"] ;
305 -> 306 ;
307 [label="Block_1 <= 0.5\ngini = 0.3\nsamples = 5\nvalue = [2.113, 9.38]"] ;
306 -> 307 ;
308 [label="gini = 0.0\nsamples = 2\nvalue = [1.056, 0.0]"] ;
307 -> 308 ;
309 [label="AvgSpeed_y <= 3.55\ngini = 0.182\nsamples = 3\nvalue = [1.056, 9.38]"] ;
307 -> 309 ;
310 [label="gini = 0.0\nsamples = 1\nvalue = [0.528, 0.0]"] ;
309 -> 310 ;
311 [label="gini = 0.101\nsamples = 2\nvalue = [0.528, 9.38]"] ;
309 -> 311 ;
312 [label="gini = 0.0\nsamples = 6\nvalue = [3.169, 0.0]"] ;
306 -> 312 ;
313 [label="gini = -0.0\nsamples = 40\nvalue = [21.126, 0.0]"] ;
305 -> 313 ;
314 [label="gini = -0.0\nsamples = 92\nvalue = [48.59, 0.0]"] ;
178 -> 314 ;
315 [label="Trap_105 <= 0.5\ngini = 0.419\nsamples = 248\nvalue = [115.665, 272.023]"] ;
177 -> 315 ;
316 [label="Loc_4_10 <= 12.5\ngini = 0.415\nsamples = 243\nvalue = [113.025, 272.023]"] ;
315 -> 316 ;
317 [label="Loc_4_2 <= 2.5\ngini = 0.463\nsamples = 168\nvalue = [80.807, 140.702]"] ;
316 -> 317 ;
318 [label="Loc_2_6 <= 4.5\ngini = 0.488\nsamples = 76\nvalue = [38.555, 28.14]"] ;
317 -> 318 ;
319 [label="IsPipiens <= 0.75\ngini = 0.496\nsamples = 48\nvalue = [23.767, 28.14]"] ;
318 -> 319 ;
320 [label="Street_59 <= 0.5\ngini = 0.441\nsamples = 29\nvalue = [13.732, 28.14]"] ;
319 -> 320 ;
321 [label="Block_17 <= 0.5\ngini = 0.428\nsamples = 27\nvalue = [12.676, 28.14]"] ;
320 -> 321 ;
322 [label="Street_89 <= 0.5\ngini = 0.397\nsamples = 23\nvalue = [10.563, 28.14]"] ;
321 -> 322 ;
323 [label="Trap_65 <= 0.5\ngini = 0.367\nsamples = 20\nvalue = [8.979, 28.14]"] ;
322 -> 323 ;
324 [label="Loc_8_10 <= 15.5\ngini = 0.378\nsamples = 14\nvalue = [6.338, 18.76]"] ;
323 -> 324 ;
325 [label="Loc_8_8 <= 5.0\ngini = 0.481\nsamples = 13\nvalue = [6.338, 9.38]"] ;
324 -> 325 ;
326 [label="DewPoint_y <= 67.5\ngini = 0.3\nsamples = 5\nvalue = [2.113, 9.38]"] ;
325 -> 326 ;
327 [label="gini = 0.0\nsamples = 2\nvalue = [1.056, 0.0]"] ;
326 -> 327 ;
328 [label="Species_3 <= 0.5\ngini = 0.182\nsamples = 3\nvalue = [1.056, 9.38]"] ;
326 -> 328 ;
329 [label="gini = 0.101\nsamples = 2\nvalue = [0.528, 9.38]"] ;
328 -> 329 ;
330 [label="gini = 0.0\nsamples = 1\nvalue = [0.528, 0.0]"] ;
328 -> 330 ;
331 [label="gini = 0.0\nsamples = 8\nvalue = [4.225, 0.0]"] ;
325 -> 331 ;
332 [label="gini = 0.0\nsamples = 1\nvalue = [0.0, 9.38]"] ;
324 -> 332 ;
333 [label="IsPipiensRestuans <= 0.5\ngini = 0.343\nsamples = 6\nvalue = [2.641, 9.38]"] ;
323 -> 333 ;
334 [label="gini = 0.101\nsamples = 2\nvalue = [0.528, 9.38]"] ;
333 -> 334 ;
335 [label="gini = 0.0\nsamples = 4\nvalue = [2.113, 0.0]"] ;
333 -> 335 ;
336 [label="gini = -0.0\nsamples = 3\nvalue = [1.584, 0.0]"] ;
322 -> 336 ;
337 [label="gini = -0.0\nsamples = 4\nvalue = [2.113, 0.0]"] ;
321 -> 337 ;
338 [label="gini = -0.0\nsamples = 2\nvalue = [1.056, 0.0]"] ;
320 -> 338 ;
339 [label="gini = -0.0\nsamples = 19\nvalue = [10.035, 0.0]"] ;
319 -> 339 ;
340 [label="gini = -0.0\nsamples = 28\nvalue = [14.788, 0.0]"] ;
318 -> 340 ;
341 [label="Loc_6_10 <= 19.5\ngini = 0.397\nsamples = 92\nvalue = [42.252, 112.561]"] ;
317 -> 341 ;
342 [label="Loc_6_2 <= 12.5\ngini = 0.333\nsamples = 69\nvalue = [30.105, 112.561]"] ;
341 -> 342 ;
343 [label="Species_1 <= 0.5\ngini = 0.481\nsamples = 39\nvalue = [19.014, 28.14]"] ;
342 -> 343 ;
344 [label="gini = -0.0\nsamples = 22\nvalue = [11.619, 0.0]"] ;
343 -> 344 ;
345 [label="Trap_45 <= 0.5\ngini = 0.33\nsamples = 17\nvalue = [7.394, 28.14]"] ;
343 -> 345 ;
346 [label="Street_57 <= 0.5\ngini = 0.3\nsamples = 15\nvalue = [6.338, 28.14]"] ;
345 -> 346 ;
347 [label="Trap_121 <= 0.5\ngini = 0.266\nsamples = 13\nvalue = [5.282, 28.14]"] ;
346 -> 347 ;
348 [label="Tmax_x <= 79.0\ngini = 0.343\nsamples = 12\nvalue = [5.282, 18.76]"] ;
347 -> 348 ;
349 [label="gini = 0.0\nsamples = 4\nvalue = [2.113, 0.0]"] ;
348 -> 349 ;
350 [label="Long_int <= -8770.0\ngini = 0.247\nsamples = 8\nvalue = [3.169, 18.76]"] ;
348 -> 350 ;
351 [label="Loc_6_2 <= 9.0\ngini = 0.144\nsamples = 5\nvalue = [1.584, 18.76]"] ;
350 -> 351 ;
352 [label="gini = 0.0\nsamples = 1\nvalue = [0.528, 0.0]"] ;
351 -> 352 ;
353 [label="Latitude_std <= -0.364\ngini = 0.101\nsamples = 4\nvalue = [1.056, 18.76]"] ;
351 -> 353 ;
354 [label="Loc_8_6 <= 21.5\ngini = 0.053\nsamples = 3\nvalue = [0.528, 18.76]"] ;
353 -> 354 ;
355 [label="gini = 0.0\nsamples = 1\nvalue = [0.0, 9.38]"] ;
354 -> 355 ;
356 [label="Trap_81 <= 0.5\ngini = 0.101\nsamples = 2\nvalue = [0.528, 9.38]"] ;
354 -> 356 ;
357 [label="gini = 0.0\nsamples = 1\nvalue = [0.528, 0.0]"] ;
356 -> 357 ;
358 [label="gini = 0.0\nsamples = 1\nvalue = [0.0, 9.38]"] ;
356 -> 358 ;
359 [label="gini = 0.0\nsamples = 1\nvalue = [0.528, 0.0]"] ;
353 -> 359 ;
360 [label="gini = 0.0\nsamples = 3\nvalue = [1.584, 0.0]"] ;
350 -> 360 ;
361 [label="gini = 0.0\nsamples = 1\nvalue = [0.0, 9.38]"] ;
347 -> 361 ;
362 [label="gini = -0.0\nsamples = 2\nvalue = [1.056, 0.0]"] ;
346 -> 362 ;
363 [label="gini = -0.0\nsamples = 2\nvalue = [1.056, 0.0]"] ;
345 -> 363 ;
364 [label="Loc_8_4 <= 26.5\ngini = 0.205\nsamples = 30\nvalue = [11.091, 84.421]"] ;
342 -> 364 ;
365 [label="Street_46 <= 0.5\ngini = 0.19\nsamples = 28\nvalue = [10.035, 84.421]"] ;
364 -> 365 ;
366 [label="Depart_x <= 3.0\ngini = 0.165\nsamples = 25\nvalue = [8.45, 84.421]"] ;
365 -> 366 ;
367 [label="Long_int <= -8770.5\ngini = 0.086\nsamples = 11\nvalue = [2.641, 56.281]"] ;
366 -> 367 ;
368 [label="Block_21 <= 0.5\ngini = 0.247\nsamples = 4\nvalue = [1.584, 9.38]"] ;
367 -> 368 ;
369 [label="gini = 0.0\nsamples = 1\nvalue = [0.528, 0.0]"] ;
368 -> 369 ;
370 [label="IsRestuans <= 0.25\ngini = 0.182\nsamples = 3\nvalue = [1.056, 9.38]"] ;
368 -> 370 ;
371 [label="gini = 0.0\nsamples = 1\nvalue = [0.528, 0.0]"] ;
370 -> 371 ;
372 [label="Species_2 <= 0.5\ngini = 0.101\nsamples = 2\nvalue = [0.528, 9.38]"] ;
370 -> 372 ;
373 [label="gini = 0.0\nsamples = 1\nvalue = [0.528, 0.0]"] ;
372 -> 373 ;
374 [label="gini = 0.0\nsamples = 1\nvalue = [0.0, 9.38]"] ;
372 -> 374 ;
375 [label="Loc_6_4 <= 14.5\ngini = 0.043\nsamples = 7\nvalue = [1.056, 46.901]"] ;
367 -> 375 ;
376 [label="Latitude_std <= -0.345\ngini = 0.07\nsamples = 5\nvalue = [1.056, 28.14]"] ;
375 -> 376 ;
377 [label="Long_int <= -8768.5\ngini = 0.101\nsamples = 4\nvalue = [1.056, 18.76]"] ;
376 -> 377 ;
378 [label="IsRestuans <= 0.25\ngini = 0.101\nsamples = 2\nvalue = [0.528, 9.38]"] ;
377 -> 378 ;
379 [label="gini = 0.0\nsamples = 1\nvalue = [0.0, 9.38]"] ;
378 -> 379 ;
380 [label="gini = 0.0\nsamples = 1\nvalue = [0.528, 0.0]"] ;
378 -> 380 ;
381 [label="IsRestuans <= 0.5\ngini = 0.101\nsamples = 2\nvalue = [0.528, 9.38]"] ;
377 -> 381 ;
382 [label="gini = 0.0\nsamples = 1\nvalue = [0.528, 0.0]"] ;
381 -> 382 ;
383 [label="gini = 0.0\nsamples = 1\nvalue = [0.0, 9.38]"] ;
381 -> 383 ;
384 [label="gini = 0.0\nsamples = 1\nvalue = [0.0, 9.38]"] ;
376 -> 384 ;
385 [label="gini = 0.0\nsamples = 2\nvalue = [0.0, 18.76]"] ;
375 -> 385 ;
386 [label="Loc_8_4 <= 22.0\ngini = 0.284\nsamples = 14\nvalue = [5.81, 28.14]"] ;
366 -> 386 ;
387 [label="Species_3 <= 0.5\ngini = 0.182\nsamples = 3\nvalue = [1.056, 9.38]"] ;
386 -> 387 ;
388 [label="IsRestuans <= 0.25\ngini = 0.101\nsamples = 2\nvalue = [0.528, 9.38]"] ;
387 -> 388 ;
389 [label="gini = 0.0\nsamples = 1\nvalue = [0.0, 9.38]"] ;
388 -> 389 ;
390 [label="gini = 0.0\nsamples = 1\nvalue = [0.528, 0.0]"] ;
388 -> 390 ;
391 [label="gini = 0.0\nsamples = 1\nvalue = [0.528, 0.0]"] ;
387 -> 391 ;
392 [label="Street_93 <= 0.5\ngini = 0.323\nsamples = 11\nvalue = [4.753, 18.76]"] ;
386 -> 392 ;
393 [label="Loc_8_10 <= 30.5\ngini = 0.428\nsamples = 9\nvalue = [4.225, 9.38]"] ;
392 -> 393 ;
394 [label="gini = 0.0\nsamples = 4\nvalue = [2.113, 0.0]"] ;
393 -> 394 ;
395 [label="IsPipiensRestuans <= 0.5\ngini = 0.3\nsamples = 5\nvalue = [2.113, 9.38]"] ;
393 -> 395 ;
396 [label="IsPipiens <= 0.5\ngini = 0.182\nsamples = 3\nvalue = [1.056, 9.38]"] ;
395 -> 396 ;
397 [label="gini = 0.0\nsamples = 1\nvalue = [0.528, 0.0]"] ;
396 -> 397 ;
398 [label="gini = 0.101\nsamples = 2\nvalue = [0.528, 9.38]"] ;
396 -> 398 ;
399 [label="gini = 0.0\nsamples = 2\nvalue = [1.056, 0.0]"] ;
395 -> 399 ;
400 [label="Species_1 <= 0.5\ngini = 0.101\nsamples = 2\nvalue = [0.528, 9.38]"] ;
392 -> 400 ;
401 [label="gini = 0.0\nsamples = 1\nvalue = [0.528, 0.0]"] ;
400 -> 401 ;
402 [label="gini = 0.0\nsamples = 1\nvalue = [0.0, 9.38]"] ;
400 -> 402 ;
403 [label="gini = 0.0\nsamples = 3\nvalue = [1.584, 0.0]"] ;
365 -> 403 ;
404 [label="gini = 0.0\nsamples = 2\nvalue = [1.056, 0.0]"] ;
364 -> 404 ;
405 [label="gini = -0.0\nsamples = 23\nvalue = [12.148, 0.0]"] ;
341 -> 405 ;
406 [label="Latitude_std <= 0.715\ngini = 0.316\nsamples = 75\nvalue = [32.217, 131.321]"] ;
316 -> 406 ;
407 [label="Trap_33 <= 0.5\ngini = 0.279\nsamples = 64\nvalue = [26.408, 131.321]"] ;
406 -> 407 ;
408 [label="Longitude_std <= -0.226\ngini = 0.26\nsamples = 59\nvalue = [23.767, 131.321]"] ;
407 -> 408 ;
409 [label="gini = 0.0\nsamples = 5\nvalue = [2.641, 0.0]"] ;
408 -> 409 ;
410 [label="ResultDir_y <= 15.0\ngini = 0.239\nsamples = 54\nvalue = [21.126, 131.321]"] ;
408 -> 410 ;
411 [label="Street_41 <= 0.5\ngini = 0.286\nsamples = 33\nvalue = [13.732, 65.661]"] ;
410 -> 411 ;
412 [label="Loc_2_4 <= 3.5\ngini = 0.279\nsamples = 32\nvalue = [13.204, 65.661]"] ;
411 -> 412 ;
413 [label="gini = 0.0\nsamples = 1\nvalue = [0.528, 0.0]"] ;
412 -> 413 ;
414 [label="Loc_6_10 <= 23.5\ngini = 0.271\nsamples = 31\nvalue = [12.676, 65.661]"] ;
412 -> 414 ;
415 [label="gini = 0.0\nsamples = 7\nvalue = [3.697, 0.0]"] ;
414 -> 415 ;
416 [label="Loc_10_4 <= 67.5\ngini = 0.212\nsamples = 24\nvalue = [8.979, 65.661]"] ;
414 -> 416 ;
417 [label="Loc_8_10 <= 46.5\ngini = 0.196\nsamples = 16\nvalue = [5.81, 46.901]"] ;
416 -> 417 ;
418 [label="Lat_int <= 4189.5\ngini = 0.232\nsamples = 15\nvalue = [5.81, 37.52]"] ;
417 -> 418 ;
419 [label="Loc_8_6 <= 40.0\ngini = 0.216\nsamples = 14\nvalue = [5.282, 37.52]"] ;
418 -> 419 ;
420 [label="IsRestuans <= 0.75\ngini = 0.247\nsamples = 12\nvalue = [4.753, 28.14]"] ;
419 -> 420 ;
421 [label="Longitude_std <= 0.459\ngini = 0.446\nsamples = 10\nvalue = [4.753, 9.38]"] ;
420 -> 421 ;
422 [label="gini = 0.0\nsamples = 5\nvalue = [2.641, 0.0]"] ;
421 -> 422 ;
423 [label="Species_1 <= 0.5\ngini = 0.3\nsamples = 5\nvalue = [2.113, 9.38]"] ;
421 -> 423 ;
424 [label="gini = 0.0\nsamples = 3\nvalue = [1.584, 0.0]"] ;
423 -> 424 ;
425 [label="Street_74 <= 0.5\ngini = 0.101\nsamples = 2\nvalue = [0.528, 9.38]"] ;
423 -> 425 ;
426 [label="gini = 0.0\nsamples = 1\nvalue = [0.0, 9.38]"] ;
425 -> 426 ;
427 [label="gini = 0.0\nsamples = 1\nvalue = [0.528, 0.0]"] ;
425 -> 427 ;
428 [label="gini = 0.0\nsamples = 2\nvalue = [0.0, 18.76]"] ;
420 -> 428 ;
429 [label="Species_3 <= 0.5\ngini = 0.101\nsamples = 2\nvalue = [0.528, 9.38]"] ;
419 -> 429 ;
430 [label="gini = 0.0\nsamples = 1\nvalue = [0.528, 0.0]"] ;
429 -> 430 ;
431 [label="gini = 0.0\nsamples = 1\nvalue = [0.0, 9.38]"] ;
429 -> 431 ;
432 [label="gini = -0.0\nsamples = 1\nvalue = [0.528, 0.0]"] ;
418 -> 432 ;
433 [label="gini = 0.0\nsamples = 1\nvalue = [0.0, 9.38]"] ;
417 -> 433 ;
434 [label="Trap_32 <= 0.5\ngini = 0.247\nsamples = 8\nvalue = [3.169, 18.76]"] ;
416 -> 434 ;
435 [label="Species_1 <= 0.5\ngini = 0.182\nsamples = 3\nvalue = [1.056, 9.38]"] ;
434 -> 435 ;
436 [label="gini = 0.0\nsamples = 2\nvalue = [1.056, 0.0]"] ;
435 -> 436 ;
437 [label="gini = 0.0\nsamples = 1\nvalue = [0.0, 9.38]"] ;
435 -> 437 ;
438 [label="Species_2 <= 0.5\ngini = 0.3\nsamples = 5\nvalue = [2.113, 9.38]"] ;
434 -> 438 ;
439 [label="gini = 0.0\nsamples = 2\nvalue = [1.056, 0.0]"] ;
438 -> 439 ;
440 [label="gini = 0.182\nsamples = 3\nvalue = [1.056, 9.38]"] ;
438 -> 440 ;
441 [label="gini = 0.0\nsamples = 1\nvalue = [0.528, 0.0]"] ;
411 -> 441 ;
442 [label="Trap_30 <= 0.5\ngini = 0.182\nsamples = 21\nvalue = [7.394, 65.661]"] ;
410 -> 442 ;
443 [label="Loc_4_8 <= 13.5\ngini = 0.171\nsamples = 20\nvalue = [6.866, 65.661]"] ;
442 -> 443 ;
444 [label="Trap_68 <= 0.5\ngini = 0.161\nsamples = 19\nvalue = [6.338, 65.661]"] ;
443 -> 444 ;
445 [label="Loc_8_6 <= 43.5\ngini = 0.138\nsamples = 17\nvalue = [5.282, 65.661]"] ;
444 -> 445 ;
446 [label="Street_49 <= 0.5\ngini = 0.114\nsamples = 15\nvalue = [4.225, 65.661]"] ;
445 -> 446 ;
447 [label="Loc_10_4 <= 42.5\ngini = 0.086\nsamples = 11\nvalue = [2.641, 56.281]"] ;
446 -> 447 ;
448 [label="gini = 0.0\nsamples = 1\nvalue = [0.528, 0.0]"] ;
447 -> 448 ;
449 [label="Loc_10_8 <= 54.5\ngini = 0.07\nsamples = 10\nvalue = [2.113, 56.281]"] ;
447 -> 449 ;
450 [label="gini = 0.0\nsamples = 2\nvalue = [0.0, 18.76]"] ;
449 -> 450 ;
451 [label="Street_11 <= 0.5\ngini = 0.101\nsamples = 8\nvalue = [2.113, 37.52]"] ;
449 -> 451 ;
452 [label="Loc_10_2 <= 66.0\ngini = 0.13\nsamples = 7\nvalue = [2.113, 28.14]"] ;
451 -> 452 ;
453 [label="Species_1 <= 0.5\ngini = 0.101\nsamples = 4\nvalue = [1.056, 18.76]"] ;
452 -> 453 ;
454 [label="Loc_4_6 <= 11.5\ngini = 0.101\nsamples = 2\nvalue = [0.528, 9.38]"] ;
453 -> 454 ;
455 [label="gini = 0.0\nsamples = 1\nvalue = [0.528, 0.0]"] ;
454 -> 455 ;
456 [label="gini = 0.0\nsamples = 1\nvalue = [0.0, 9.38]"] ;
454 -> 456 ;
457 [label="Loc_6_6 <= 24.5\ngini = 0.101\nsamples = 2\nvalue = [0.528, 9.38]"] ;
453 -> 457 ;
458 [label="gini = 0.0\nsamples = 1\nvalue = [0.528, 0.0]"] ;
457 -> 458 ;
459 [label="gini = 0.0\nsamples = 1\nvalue = [0.0, 9.38]"] ;
457 -> 459 ;
460 [label="Species_3 <= 0.5\ngini = 0.182\nsamples = 3\nvalue = [1.056, 9.38]"] ;
452 -> 460 ;
461 [label="Species_2 <= 0.5\ngini = 0.101\nsamples = 2\nvalue = [0.528, 9.38]"] ;
460 -> 461 ;
462 [label="gini = 0.0\nsamples = 1\nvalue = [0.528, 0.0]"] ;
461 -> 462 ;
463 [label="gini = 0.0\nsamples = 1\nvalue = [0.0, 9.38]"] ;
461 -> 463 ;
464 [label="gini = 0.0\nsamples = 1\nvalue = [0.528, 0.0]"] ;
460 -> 464 ;
465 [label="gini = 0.0\nsamples = 1\nvalue = [0.0, 9.38]"] ;
451 -> 465 ;
466 [label="SeaLevel_y <= 29.935\ngini = 0.247\nsamples = 4\nvalue = [1.584, 9.38]"] ;
446 -> 466 ;
467 [label="IsPipiensRestuans <= 0.5\ngini = 0.101\nsamples = 2\nvalue = [0.528, 9.38]"] ;
466 -> 467 ;
468 [label="gini = 0.0\nsamples = 1\nvalue = [0.0, 9.38]"] ;
467 -> 468 ;
469 [label="gini = 0.0\nsamples = 1\nvalue = [0.528, 0.0]"] ;
467 -> 469 ;
470 [label="gini = -0.0\nsamples = 2\nvalue = [1.056, 0.0]"] ;
466 -> 470 ;
471 [label="gini = 0.0\nsamples = 2\nvalue = [1.056, 0.0]"] ;
445 -> 471 ;
472 [label="gini = 0.0\nsamples = 2\nvalue = [1.056, 0.0]"] ;
444 -> 472 ;
473 [label="gini = 0.0\nsamples = 1\nvalue = [0.528, 0.0]"] ;
443 -> 473 ;
474 [label="gini = 0.0\nsamples = 1\nvalue = [0.528, 0.0]"] ;
442 -> 474 ;
475 [label="gini = -0.0\nsamples = 5\nvalue = [2.641, 0.0]"] ;
407 -> 475 ;
476 [label="gini = -0.0\nsamples = 11\nvalue = [5.81, 0.0]"] ;
406 -> 476 ;
477 [label="gini = 0.0\nsamples = 5\nvalue = [2.641, 0.0]"] ;
315 -> 477 ;
478 [label="Street_53 <= 0.5\ngini = 0.447\nsamples = 1535\nvalue = [729.907, 1435.156]"] ;
176 -> 478 ;
479 [label="PrecipTotal_x <= 0.66\ngini = 0.445\nsamples = 1515\nvalue = [719.344, 1435.156]"] ;
478 -> 479 ;
480 [label="DayLength_MPrec <= 14.2\ngini = 0.433\nsamples = 1399\nvalue = [659.135, 1416.395]"] ;
479 -> 480 ;
481 [label="Cool_y <= 18.0\ngini = 0.396\nsamples = 1094\nvalue = [502.273, 1341.355]"] ;
480 -> 481 ;
482 [label="Street_123 <= 0.5\ngini = 0.391\nsamples = 1052\nvalue = [481.147, 1322.594]"] ;
481 -> 482 ;
483 [label="Trap_30 <= 0.5\ngini = 0.388\nsamples = 1037\nvalue = [473.225, 1322.594]"] ;
482 -> 483 ;
484 [label="Longitude_std <= 0.249\ngini = 0.386\nsamples = 1028\nvalue = [468.472, 1322.594]"] ;
483 -> 484 ;
485 [label="StnPressure_x <= 29.41\ngini = 0.326\nsamples = 346\nvalue = [149.995, 581.566]"] ;
484 -> 485 ;
486 [label="Street_51 <= 0.5\ngini = 0.32\nsamples = 337\nvalue = [145.242, 581.566]"] ;
485 -> 486 ;
487 [label="Tmax_y <= 85.5\ngini = 0.317\nsamples = 333\nvalue = [143.129, 581.566]"] ;
486 -> 487 ;
488 [label="Street_95 <= 0.5\ngini = 0.292\nsamples = 246\nvalue = [102.99, 478.385]"] ;
487 -> 488 ;
489 [label="Block_13 <= 0.5\ngini = 0.288\nsamples = 242\nvalue = [100.877, 478.385]"] ;
488 -> 489 ;
490 [label="Trap_99 <= 0.5\ngini = 0.285\nsamples = 239\nvalue = [99.293, 478.385]"] ;
489 -> 490 ;
491 [label="Block_21 <= 0.5\ngini = 0.281\nsamples = 235\nvalue = [97.18, 478.385]"] ;
490 -> 491 ;
492 [label="Loc_4_6 <= 5.5\ngini = 0.272\nsamples = 227\nvalue = [92.955, 478.385]"] ;
491 -> 492 ;
493 [label="WetBulb_x <= 60.0\ngini = 0.201\nsamples = 36\nvalue = [13.204, 103.181]"] ;
492 -> 493 ;
494 [label="gini = 0.0\nsamples = 3\nvalue = [1.584, 0.0]"] ;
493 -> 494 ;
495 [label="DewPoint_x <= 58.5\ngini = 0.182\nsamples = 33\nvalue = [11.619, 103.181]"] ;
493 -> 495 ;
496 [label="day_of_month <= 7.0\ngini = 0.461\nsamples = 11\nvalue = [5.282, 9.38]"] ;
495 -> 496 ;
497 [label="gini = 0.0\nsamples = 4\nvalue = [2.113, 0.0]"] ;
496 -> 497 ;
498 [label="Latitude_std <= -1.498\ngini = 0.378\nsamples = 7\nvalue = [3.169, 9.38]"] ;
496 -> 498 ;
499 [label="gini = 0.0\nsamples = 3\nvalue = [1.584, 0.0]"] ;
498 -> 499 ;
500 [label="Loc_8_10 <= 9.0\ngini = 0.247\nsamples = 4\nvalue = [1.584, 9.38]"] ;
498 -> 500 ;
501 [label="IsPipiensRestuans <= 0.5\ngini = 0.182\nsamples = 3\nvalue = [1.056, 9.38]"] ;
500 -> 501 ;
502 [label="gini = -0.0\nsamples = 2\nvalue = [1.056, 0.0]"] ;
501 -> 502 ;
503 [label="gini = 0.0\nsamples = 1\nvalue = [0.0, 9.38]"] ;
501 -> 503 ;
504 [label="gini = 0.0\nsamples = 1\nvalue = [0.528, 0.0]"] ;
500 -> 504 ;
505 [label="Trap_74 <= 0.5\ngini = 0.119\nsamples = 22\nvalue = [6.338, 93.801]"] ;
495 -> 505 ;
506 [label="Species_3 <= 0.5\ngini = 0.092\nsamples = 19\nvalue = [4.753, 93.801]"] ;
505 -> 506 ;
507 [label="WetBulb_x <= 70.5\ngini = 0.082\nsamples = 18\nvalue = [4.225, 93.801]"] ;
506 -> 507 ;
508 [label="Street_88 <= 0.5\ngini = 0.13\nsamples = 14\nvalue = [4.225, 56.281]"] ;
507 -> 508 ;
509 [label="Loc_8_8 <= 19.0\ngini = 0.086\nsamples = 11\nvalue = [2.641, 56.281]"] ;
508 -> 509 ;
510 [label="Loc_10_6 <= 8.0\ngini = 0.07\nsamples = 10\nvalue = [2.113, 56.281]"] ;
509 -> 510 ;
511 [label="Tavg_y <= 74.0\ngini = 0.144\nsamples = 5\nvalue = [1.584, 18.76]"] ;
510 -> 511 ;
512 [label="gini = 0.0\nsamples = 1\nvalue = [0.0, 9.38]"] ;
511 -> 512 ;
513 [label="Species_1 <= 0.5\ngini = 0.247\nsamples = 4\nvalue = [1.584, 9.38]"] ;
511 -> 513 ;
514 [label="gini = 0.101\nsamples = 2\nvalue = [0.528, 9.38]"] ;
513 -> 514 ;
515 [label="gini = -0.0\nsamples = 2\nvalue = [1.056, 0.0]"] ;
513 -> 515 ;
516 [label="Street_87 <= 0.5\ngini = 0.027\nsamples = 5\nvalue = [0.528, 37.52]"] ;
510 -> 516 ;
517 [label="gini = 0.0\nsamples = 2\nvalue = [0.0, 18.76]"] ;
516 -> 517 ;
518 [label="IsPipiensRestuans <= 0.5\ngini = 0.053\nsamples = 3\nvalue = [0.528, 18.76]"] ;
516 -> 518 ;
519 [label="gini = 0.0\nsamples = 2\nvalue = [0.0, 18.76]"] ;
518 -> 519 ;
520 [label="gini = 0.0\nsamples = 1\nvalue = [0.528, 0.0]"] ;
518 -> 520 ;
521 [label="gini = -0.0\nsamples = 1\nvalue = [0.528, 0.0]"] ;
509 -> 521 ;
522 [label="gini = -0.0\nsamples = 3\nvalue = [1.584, 0.0]"] ;
508 -> 522 ;
523 [label="gini = 0.0\nsamples = 4\nvalue = [0.0, 37.52]"] ;
507 -> 523 ;
524 [label="gini = 0.0\nsamples = 1\nvalue = [0.528, 0.0]"] ;
506 -> 524 ;
525 [label="gini = 0.0\nsamples = 3\nvalue = [1.584, 0.0]"] ;
505 -> 525 ;
526 [label="DewPoint_y <= 56.0\ngini = 0.289\nsamples = 191\nvalue = [79.751, 375.204]"] ;
492 -> 526 ;
527 [label="Loc_4_8 <= 13.5\ngini = 0.221\nsamples = 75\nvalue = [28.52, 196.982]"] ;
526 -> 527 ;
528 [label="Loc_10_4 <= 71.5\ngini = 0.208\nsamples = 71\nvalue = [26.408, 196.982]"] ;
527 -> 528 ;
529 [label="Loc_6_8 <= 19.5\ngini = 0.189\nsamples = 62\nvalue = [22.182, 187.602]"] ;
528 -> 529 ;
530 [label="Tmax_x <= 76.5\ngini = 0.275\nsamples = 36\nvalue = [14.788, 75.041]"] ;
529 -> 530 ;
531 [label="gini = 0.0\nsamples = 9\nvalue = [4.753, 0.0]"] ;
530 -> 531 ;
532 [label="DayLength_NearH <= 13.5\ngini = 0.208\nsamples = 27\nvalue = [10.035, 75.041]"] ;
530 -> 532 ;
533 [label="Longitude_std <= -0.492\ngini = 0.152\nsamples = 13\nvalue = [4.225, 46.901]"] ;
532 -> 533 ;
534 [label="gini = 0.0\nsamples = 2\nvalue = [1.056, 0.0]"] ;
533 -> 534 ;
535 [label="Block_46 <= 0.5\ngini = 0.119\nsamples = 11\nvalue = [3.169, 46.901]"] ;
533 -> 535 ;
536 [label="Loc_6_8 <= 10.0\ngini = 0.101\nsamples = 10\nvalue = [2.641, 46.901]"] ;
535 -> 536 ;
537 [label="Species_2 <= 0.5\ngini = 0.053\nsamples = 3\nvalue = [0.528, 18.76]"] ;
536 -> 537 ;
538 [label="gini = 0.0\nsamples = 2\nvalue = [0.0, 18.76]"] ;
537 -> 538 ;
539 [label="gini = 0.0\nsamples = 1\nvalue = [0.528, 0.0]"] ;
537 -> 539 ;
540 [label="Loc_4_8 <= 8.0\ngini = 0.13\nsamples = 7\nvalue = [2.113, 28.14]"] ;
536 -> 540 ;
541 [label="IsPipiens <= 0.75\ngini = 0.182\nsamples = 3\nvalue = [1.056, 9.38]"] ;
540 -> 541 ;
542 [label="gini = 0.0\nsamples = 1\nvalue = [0.528, 0.0]"] ;
541 -> 542 ;
543 [label="gini = 0.101\nsamples = 2\nvalue = [0.528, 9.38]"] ;
541 -> 543 ;
544 [label="Loc_6_8 <= 14.0\ngini = 0.101\nsamples = 4\nvalue = [1.056, 18.76]"] ;
540 -> 544 ;
545 [label="IsRestuans <= 0.25\ngini = 0.101\nsamples = 2\nvalue = [0.528, 9.38]"] ;
544 -> 545 ;
546 [label="gini = 0.0\nsamples = 1\nvalue = [0.528, 0.0]"] ;
545 -> 546 ;
547 [label="gini = 0.0\nsamples = 1\nvalue = [0.0, 9.38]"] ;
545 -> 547 ;
548 [label="IsRestuans <= 0.25\ngini = 0.101\nsamples = 2\nvalue = [0.528, 9.38]"] ;
544 -> 548 ;
549 [label="gini = 0.0\nsamples = 1\nvalue = [0.528, 0.0]"] ;
548 -> 549 ;
550 [label="gini = 0.0\nsamples = 1\nvalue = [0.0, 9.38]"] ;
548 -> 550 ;
551 [label="gini = -0.0\nsamples = 1\nvalue = [0.528, 0.0]"] ;
535 -> 551 ;
552 [label="Loc_10_2 <= 30.5\ngini = 0.284\nsamples = 14\nvalue = [5.81, 28.14]"] ;
532 -> 552 ;
553 [label="Loc_6_8 <= 12.0\ngini = 0.101\nsamples = 2\nvalue = [0.528, 9.38]"] ;
552 -> 553 ;
554 [label="gini = 0.0\nsamples = 1\nvalue = [0.528, 0.0]"] ;
553 -> 554 ;
555 [label="gini = 0.0\nsamples = 1\nvalue = [0.0, 9.38]"] ;
553 -> 555 ;
556 [label="Trap_81 <= 0.5\ngini = 0.343\nsamples = 12\nvalue = [5.282, 18.76]"] ;
552 -> 556 ;
557 [label="Species_2 <= 0.5\ngini = 0.275\nsamples = 9\nvalue = [3.697, 18.76]"] ;
556 -> 557 ;
558 [label="gini = 0.0\nsamples = 5\nvalue = [2.641, 0.0]"] ;
557 -> 558 ;
559 [label="Block_19 <= 0.5\ngini = 0.101\nsamples = 4\nvalue = [1.056, 18.76]"] ;
557 -> 559 ;
560 [label="Longitude_std <= 0.216\ngini = 0.053\nsamples = 3\nvalue = [0.528, 18.76]"] ;
559 -> 560 ;
561 [label="gini = 0.0\nsamples = 2\nvalue = [0.0, 18.76]"] ;
560 -> 561 ;
562 [label="gini = 0.0\nsamples = 1\nvalue = [0.528, 0.0]"] ;
560 -> 562 ;
563 [label="gini = 0.0\nsamples = 1\nvalue = [0.528, 0.0]"] ;
559 -> 563 ;
564 [label="gini = 0.0\nsamples = 3\nvalue = [1.584, 0.0]"] ;
556 -> 564 ;
565 [label="NightLength_NearH <= 10.5\ngini = 0.116\nsamples = 26\nvalue = [7.394, 112.561]"] ;
529 -> 565 ;
566 [label="Tmin_x <= 60.0\ngini = 0.11\nsamples = 21\nvalue = [5.81, 93.801]"] ;
565 -> 566 ;
567 [label="Block_0 <= 0.5\ngini = 0.07\nsamples = 10\nvalue = [2.113, 56.281]"] ;
566 -> 567 ;
568 [label="IsPipiens <= 0.75\ngini = 0.027\nsamples = 5\nvalue = [0.528, 37.52]"] ;
567 -> 568 ;
569 [label="gini = 0.0\nsamples = 2\nvalue = [0.0, 18.76]"] ;
568 -> 569 ;
570 [label="Loc_4_10 <= 12.0\ngini = 0.053\nsamples = 3\nvalue = [0.528, 18.76]"] ;
568 -> 570 ;
571 [label="gini = 0.0\nsamples = 1\nvalue = [0.0, 9.38]"] ;
570 -> 571 ;
572 [label="Long_int <= -8770.0\ngini = 0.101\nsamples = 2\nvalue = [0.528, 9.38]"] ;
570 -> 572 ;
573 [label="gini = 0.0\nsamples = 1\nvalue = [0.528, 0.0]"] ;
572 -> 573 ;
574 [label="gini = 0.0\nsamples = 1\nvalue = [0.0, 9.38]"] ;
572 -> 574 ;
575 [label="IsPipiensRestuans <= 0.5\ngini = 0.144\nsamples = 5\nvalue = [1.584, 18.76]"] ;
567 -> 575 ;
576 [label="gini = 0.0\nsamples = 3\nvalue = [1.584, 0.0]"] ;
575 -> 576 ;
577 [label="gini = 0.0\nsamples = 2\nvalue = [0.0, 18.76]"] ;
575 -> 577 ;
578 [label="Loc_8_6 <= 38.0\ngini = 0.163\nsamples = 11\nvalue = [3.697, 37.52]"] ;
566 -> 578 ;
579 [label="gini = 0.0\nsamples = 2\nvalue = [1.056, 0.0]"] ;
578 -> 579 ;
580 [label="Loc_8_6 <= 41.5\ngini = 0.123\nsamples = 9\nvalue = [2.641, 37.52]"] ;
578 -> 580 ;
581 [label="Species_2 <= 0.5\ngini = 0.182\nsamples = 3\nvalue = [1.056, 9.38]"] ;
580 -> 581 ;
582 [label="gini = 0.0\nsamples = 2\nvalue = [1.056, 0.0]"] ;
581 -> 582 ;
583 [label="gini = 0.0\nsamples = 1\nvalue = [0.0, 9.38]"] ;
581 -> 583 ;
584 [label="Trap_126 <= 0.5\ngini = 0.101\nsamples = 6\nvalue = [1.584, 28.14]"] ;
580 -> 584 ;
585 [label="Loc_4_6 <= 10.5\ngini = 0.144\nsamples = 5\nvalue = [1.584, 18.76]"] ;
584 -> 585 ;
586 [label="IsPipiens <= 0.75\ngini = 0.101\nsamples = 2\nvalue = [0.528, 9.38]"] ;
585 -> 586 ;
587 [label="gini = 0.0\nsamples = 1\nvalue = [0.528, 0.0]"] ;
586 -> 587 ;
588 [label="gini = 0.0\nsamples = 1\nvalue = [0.0, 9.38]"] ;
586 -> 588 ;
589 [label="IsPipiens <= 0.25\ngini = 0.182\nsamples = 3\nvalue = [1.056, 9.38]"] ;
585 -> 589 ;
590 [label="gini = 0.0\nsamples = 1\nvalue = [0.528, 0.0]"] ;
589 -> 590 ;
591 [label="Species_1 <= 0.5\ngini = 0.101\nsamples = 2\nvalue = [0.528, 9.38]"] ;
589 -> 591 ;
592 [label="gini = 0.0\nsamples = 1\nvalue = [0.0, 9.38]"] ;
591 -> 592 ;
593 [label="gini = 0.0\nsamples = 1\nvalue = [0.528, 0.0]"] ;
591 -> 593 ;
594 [label="gini = 0.0\nsamples = 1\nvalue = [0.0, 9.38]"] ;
584 -> 594 ;
595 [label="Block_1 <= 0.5\ngini = 0.144\nsamples = 5\nvalue = [1.584, 18.76]"] ;
565 -> 595 ;
596 [label="Loc_8_8 <= 43.5\ngini = 0.101\nsamples = 4\nvalue = [1.056, 18.76]"] ;
595 -> 596 ;
597 [label="Lat_int <= 4190.5\ngini = 0.182\nsamples = 3\nvalue = [1.056, 9.38]"] ;
596 -> 597 ;
598 [label="gini = 0.0\nsamples = 1\nvalue = [0.528, 0.0]"] ;
597 -> 598 ;
599 [label="Species_1 <= 0.5\ngini = 0.101\nsamples = 2\nvalue = [0.528, 9.38]"] ;
597 -> 599 ;
600 [label="gini = 0.0\nsamples = 1\nvalue = [0.528, 0.0]"] ;
599 -> 600 ;
601 [label="gini = 0.0\nsamples = 1\nvalue = [0.0, 9.38]"] ;
599 -> 601 ;
602 [label="gini = 0.0\nsamples = 1\nvalue = [0.0, 9.38]"] ;
596 -> 602 ;
603 [label="gini = 0.0\nsamples = 1\nvalue = [0.528, 0.0]"] ;
595 -> 603 ;
604 [label="ResultDir_x <= 12.5\ngini = 0.428\nsamples = 9\nvalue = [4.225, 9.38]"] ;
528 -> 604 ;
605 [label="gini = 0.0\nsamples = 2\nvalue = [1.056, 0.0]"] ;
604 -> 605 ;
606 [label="Trap_23 <= 0.5\ngini = 0.378\nsamples = 7\nvalue = [3.169, 9.38]"] ;
604 -> 606 ;
607 [label="gini = 0.0\nsamples = 2\nvalue = [1.056, 0.0]"] ;
606 -> 607 ;
608 [label="DayLength_NearH <= 13.5\ngini = 0.3\nsamples = 5\nvalue = [2.113, 9.38]"] ;
606 -> 608 ;
609 [label="IsPipiensRestuans <= 0.5\ngini = 0.182\nsamples = 3\nvalue = [1.056, 9.38]"] ;
608 -> 609 ;
610 [label="gini = 0.101\nsamples = 2\nvalue = [0.528, 9.38]"] ;
609 -> 610 ;
611 [label="gini = 0.0\nsamples = 1\nvalue = [0.528, 0.0]"] ;
609 -> 611 ;
612 [label="gini = 0.0\nsamples = 2\nvalue = [1.056, 0.0]"] ;
608 -> 612 ;
613 [label="gini = -0.0\nsamples = 4\nvalue = [2.113, 0.0]"] ;
527 -> 613 ;
614 [label="Tmin_x <= 61.0\ngini = 0.347\nsamples = 116\nvalue = [51.231, 178.222]"] ;
526 -> 614 ;
615 [label="gini = 0.0\nsamples = 24\nvalue = [12.676, 0.0]"] ;
614 -> 615 ;
616 [label="Loc_10_6 <= 37.5\ngini = 0.292\nsamples = 92\nvalue = [38.555, 178.222]"] ;
614 -> 616 ;
617 [label="Species_3 <= 0.5\ngini = 0.406\nsamples = 24\nvalue = [11.091, 28.14]"] ;
616 -> 617 ;
618 [label="PrecipTotal_x <= -555.38\ngini = 0.378\nsamples = 21\nvalue = [9.507, 28.14]"] ;
617 -> 618 ;
619 [label="Block_10 <= 0.5\ngini = 0.3\nsamples = 15\nvalue = [6.338, 28.14]"] ;
618 -> 619 ;
620 [label="week_of_year <= 33.0\ngini = 0.247\nsamples = 12\nvalue = [4.753, 28.14]"] ;
619 -> 620 ;
621 [label="Loc_8_10 <= 19.5\ngini = 0.343\nsamples = 6\nvalue = [2.641, 9.38]"] ;
620 -> 621 ;
622 [label="gini = 0.0\nsamples = 1\nvalue = [0.528, 0.0]"] ;
621 -> 622 ;
623 [label="Longitude_std <= -0.509\ngini = 0.3\nsamples = 5\nvalue = [2.113, 9.38]"] ;
621 -> 623 ;
624 [label="IsPipiensRestuans <= 0.5\ngini = 0.182\nsamples = 3\nvalue = [1.056, 9.38]"] ;
623 -> 624 ;
625 [label="gini = 0.0\nsamples = 1\nvalue = [0.0, 9.38]"] ;
624 -> 625 ;
626 [label="gini = -0.0\nsamples = 2\nvalue = [1.056, 0.0]"] ;
624 -> 626 ;
627 [label="gini = 0.0\nsamples = 2\nvalue = [1.056, 0.0]"] ;
623 -> 627 ;
628 [label="Loc_2_6 <= 2.5\ngini = 0.182\nsamples = 6\nvalue = [2.113, 18.76]"] ;
620 -> 628 ;
629 [label="IsRestuans <= 0.25\ngini = 0.182\nsamples = 3\nvalue = [1.056, 9.38]"] ;
628 -> 629 ;
630 [label="Loc_10_10 <= 29.0\ngini = 0.101\nsamples = 2\nvalue = [0.528, 9.38]"] ;
629 -> 630 ;
631 [label="gini = 0.0\nsamples = 1\nvalue = [0.0, 9.38]"] ;
630 -> 631 ;
632 [label="gini = 0.0\nsamples = 1\nvalue = [0.528, 0.0]"] ;
630 -> 632 ;
633 [label="gini = 0.0\nsamples = 1\nvalue = [0.528, 0.0]"] ;
629 -> 633 ;
634 [label="IsRestuans <= 0.25\ngini = 0.182\nsamples = 3\nvalue = [1.056, 9.38]"] ;
628 -> 634 ;
635 [label="gini = 0.0\nsamples = 1\nvalue = [0.528, 0.0]"] ;
634 -> 635 ;
636 [label="gini = 0.101\nsamples = 2\nvalue = [0.528, 9.38]"] ;
634 -> 636 ;
637 [label="gini = -0.0\nsamples = 3\nvalue = [1.584, 0.0]"] ;
619 -> 637 ;
638 [label="gini = -0.0\nsamples = 6\nvalue = [3.169, 0.0]"] ;
618 -> 638 ;
639 [label="gini = -0.0\nsamples = 3\nvalue = [1.584, 0.0]"] ;
617 -> 639 ;
640 [label="Species_3 <= 0.5\ngini = 0.262\nsamples = 68\nvalue = [27.464, 150.082]"] ;
616 -> 640 ;
641 [label="Street_18 <= 0.5\ngini = 0.247\nsamples = 64\nvalue = [25.351, 150.082]"] ;
640 -> 641 ;
642 [label="Block_47 <= 0.5\ngini = 0.228\nsamples = 59\nvalue = [22.711, 150.082]"] ;
641 -> 642 ;
643 [label="Longitude_std <= 0.218\ngini = 0.216\nsamples = 56\nvalue = [21.126, 150.082]"] ;
642 -> 643 ;
644 [label="Trap_106 <= 0.5\ngini = 0.204\nsamples = 53\nvalue = [19.542, 150.082]"] ;
643 -> 644 ;
645 [label="Street_50 <= 0.5\ngini = 0.214\nsamples = 52\nvalue = [19.542, 140.702]"] ;
644 -> 645 ;
646 [label="Long_int <= -8768.0\ngini = 0.201\nsamples = 49\nvalue = [17.957, 140.702]"] ;
645 -> 646 ;
647 [label="day_of_month <= 22.5\ngini = 0.224\nsamples = 47\nvalue = [17.957, 121.941]"] ;
646 -> 647 ;
648 [label="Loc_10_6 <= 72.5\ngini = 0.19\nsamples = 28\nvalue = [10.035, 84.421]"] ;
647 -> 648 ;
649 [label="Loc_4_8 <= 13.5\ngini = 0.247\nsamples = 20\nvalue = [7.922, 46.901]"] ;
648 -> 649 ;
650 [label="Loc_8_10 <= 43.5\ngini = 0.21\nsamples = 17\nvalue = [6.338, 46.901]"] ;
649 -> 650 ;
651 [label="Loc_2_10 <= 6.0\ngini = 0.135\nsamples = 12\nvalue = [3.697, 46.901]"] ;
650 -> 651 ;
652 [label="Species_1 <= 0.5\ngini = 0.101\nsamples = 8\nvalue = [2.113, 37.52]"] ;
651 -> 652 ;
653 [label="Loc_6_2 <= 18.5\ngini = 0.053\nsamples = 6\nvalue = [1.056, 37.52]"] ;
652 -> 653 ;
654 [label="Loc_2_6 <= 2.5\ngini = 0.101\nsamples = 4\nvalue = [1.056, 18.76]"] ;
653 -> 654 ;
655 [label="ResultDir_x <= 26.5\ngini = 0.053\nsamples = 3\nvalue = [0.528, 18.76]"] ;
654 -> 655 ;
656 [label="gini = 0.0\nsamples = 1\nvalue = [0.0, 9.38]"] ;
655 -> 656 ;
657 [label="gini = 0.101\nsamples = 2\nvalue = [0.528, 9.38]"] ;
655 -> 657 ;
658 [label="gini = 0.0\nsamples = 1\nvalue = [0.528, 0.0]"] ;
654 -> 658 ;
659 [label="gini = 0.0\nsamples = 2\nvalue = [0.0, 18.76]"] ;
653 -> 659 ;
660 [label="gini = -0.0\nsamples = 2\nvalue = [1.056, 0.0]"] ;
652 -> 660 ;
661 [label="Street_91 <= 0.5\ngini = 0.247\nsamples = 4\nvalue = [1.584, 9.38]"] ;
651 -> 661 ;
662 [label="gini = 0.0\nsamples = 2\nvalue = [1.056, 0.0]"] ;
661 -> 662 ;
663 [label="IsPipiens <= 0.75\ngini = 0.101\nsamples = 2\nvalue = [0.528, 9.38]"] ;
661 -> 663 ;
664 [label="gini = 0.0\nsamples = 1\nvalue = [0.528, 0.0]"] ;
663 -> 664 ;
665 [label="gini = 0.0\nsamples = 1\nvalue = [0.0, 9.38]"] ;
663 -> 665 ;
666 [label="gini = -0.0\nsamples = 5\nvalue = [2.641, 0.0]"] ;
650 -> 666 ;
667 [label="gini = -0.0\nsamples = 3\nvalue = [1.584, 0.0]"] ;
649 -> 667 ;
668 [label="month <= 8.5\ngini = 0.101\nsamples = 8\nvalue = [2.113, 37.52]"] ;
648 -> 668 ;
669 [label="IsPipiens <= 0.75\ngini = 0.144\nsamples = 5\nvalue = [1.584, 18.76]"] ;
668 -> 669 ;
670 [label="Street_21 <= 0.5\ngini = 0.101\nsamples = 2\nvalue = [0.528, 9.38]"] ;
669 -> 670 ;
671 [label="gini = 0.0\nsamples = 1\nvalue = [0.0, 9.38]"] ;
670 -> 671 ;
672 [label="gini = 0.0\nsamples = 1\nvalue = [0.528, 0.0]"] ;
670 -> 672 ;
673 [label="Block_6 <= 0.5\ngini = 0.182\nsamples = 3\nvalue = [1.056, 9.38]"] ;
669 -> 673 ;
674 [label="Loc_8_8 <= 48.0\ngini = 0.101\nsamples = 2\nvalue = [0.528, 9.38]"] ;
673 -> 674 ;
675 [label="gini = 0.0\nsamples = 1\nvalue = [0.0, 9.38]"] ;
674 -> 675 ;
676 [label="gini = 0.0\nsamples = 1\nvalue = [0.528, 0.0]"] ;
674 -> 676 ;
677 [label="gini = 0.0\nsamples = 1\nvalue = [0.528, 0.0]"] ;
673 -> 677 ;
678 [label="Loc_4_10 <= 15.0\ngini = 0.053\nsamples = 3\nvalue = [0.528, 18.76]"] ;
668 -> 678 ;
679 [label="Street_21 <= 0.5\ngini = 0.101\nsamples = 2\nvalue = [0.528, 9.38]"] ;
678 -> 679 ;
680 [label="gini = 0.0\nsamples = 1\nvalue = [0.0, 9.38]"] ;
679 -> 680 ;
681 [label="gini = 0.0\nsamples = 1\nvalue = [0.528, 0.0]"] ;
679 -> 681 ;
682 [label="gini = 0.0\nsamples = 1\nvalue = [0.0, 9.38]"] ;
678 -> 682 ;
683 [label="Loc_4_8 <= 10.5\ngini = 0.288\nsamples = 19\nvalue = [7.922, 37.52]"] ;
647 -> 683 ;
684 [label="gini = 0.0\nsamples = 6\nvalue = [3.169, 0.0]"] ;
683 -> 684 ;
685 [label="Loc_10_2 <= 70.5\ngini = 0.2\nsamples = 13\nvalue = [4.753, 37.52]"] ;
683 -> 685 ;
686 [label="Street_91 <= 0.5\ngini = 0.053\nsamples = 6\nvalue = [1.056, 37.52]"] ;
685 -> 686 ;
687 [label="Street_24 <= 0.5\ngini = 0.027\nsamples = 5\nvalue = [0.528, 37.52]"] ;
686 -> 687 ;
688 [label="IsPipiensRestuans <= 0.5\ngini = 0.036\nsamples = 4\nvalue = [0.528, 28.14]"] ;
687 -> 688 ;
689 [label="gini = 0.0\nsamples = 2\nvalue = [0.0, 18.76]"] ;
688 -> 689 ;
690 [label="Latitude_std <= 0.47\ngini = 0.101\nsamples = 2\nvalue = [0.528, 9.38]"] ;
688 -> 690 ;
691 [label="gini = 0.0\nsamples = 1\nvalue = [0.528, 0.0]"] ;
690 -> 691 ;
692 [label="gini = 0.0\nsamples = 1\nvalue = [0.0, 9.38]"] ;
690 -> 692 ;
693 [label="gini = 0.0\nsamples = 1\nvalue = [0.0, 9.38]"] ;
687 -> 693 ;
694 [label="gini = -0.0\nsamples = 1\nvalue = [0.528, 0.0]"] ;
686 -> 694 ;
695 [label="gini = -0.0\nsamples = 7\nvalue = [3.697, 0.0]"] ;
685 -> 695 ;
696 [label="gini = 0.0\nsamples = 2\nvalue = [0.0, 18.76]"] ;
646 -> 696 ;
697 [label="gini = -0.0\nsamples = 3\nvalue = [1.584, 0.0]"] ;
645 -> 697 ;
698 [label="gini = 0.0\nsamples = 1\nvalue = [0.0, 9.38]"] ;
644 -> 698 ;
699 [label="gini = -0.0\nsamples = 3\nvalue = [1.584, 0.0]"] ;
643 -> 699 ;
700 [label="gini = -0.0\nsamples = 3\nvalue = [1.584, 0.0]"] ;
642 -> 700 ;
701 [label="gini = -0.0\nsamples = 5\nvalue = [2.641, 0.0]"] ;
641 -> 701 ;
702 [label="gini = -0.0\nsamples = 4\nvalue = [2.113, 0.0]"] ;
640 -> 702 ;
703 [label="gini = -0.0\nsamples = 8\nvalue = [4.225, 0.0]"] ;
491 -> 703 ;
704 [label="gini = -0.0\nsamples = 4\nvalue = [2.113, 0.0]"] ;
490 -> 704 ;
705 [label="gini = -0.0\nsamples = 3\nvalue = [1.584, 0.0]"] ;
489 -> 705 ;
706 [label="gini = -0.0\nsamples = 4\nvalue = [2.113, 0.0]"] ;
488 -> 706 ;
707 [label="Loc_8_4 <= 13.5\ngini = 0.403\nsamples = 87\nvalue = [40.14, 103.181]"] ;
487 -> 707 ;
708 [label="Cool_y <= 14.0\ngini = 0.257\nsamples = 25\nvalue = [10.035, 56.281]"] ;
707 -> 708 ;
709 [label="gini = 0.0\nsamples = 7\nvalue = [3.697, 0.0]"] ;
708 -> 709 ;
710 [label="Latitude_std <= -1.091\ngini = 0.182\nsamples = 18\nvalue = [6.338, 56.281]"] ;
708 -> 710 ;
711 [label="Tavg_y <= 81.0\ngini = 0.361\nsamples = 13\nvalue = [5.81, 18.76]"] ;
710 -> 711 ;
712 [label="gini = 0.0\nsamples = 8\nvalue = [4.225, 0.0]"] ;
711 -> 712 ;
713 [label="Block_19 <= 0.5\ngini = 0.144\nsamples = 5\nvalue = [1.584, 18.76]"] ;
711 -> 713 ;
714 [label="Loc_6_10 <= 5.5\ngini = 0.101\nsamples = 4\nvalue = [1.056, 18.76]"] ;
713 -> 714 ;
715 [label="gini = 0.0\nsamples = 1\nvalue = [0.0, 9.38]"] ;
714 -> 715 ;
716 [label="Species_2 <= 0.5\ngini = 0.182\nsamples = 3\nvalue = [1.056, 9.38]"] ;
714 -> 716 ;
717 [label="gini = 0.0\nsamples = 1\nvalue = [0.0, 9.38]"] ;
716 -> 717 ;
718 [label="gini = 0.0\nsamples = 2\nvalue = [1.056, 0.0]"] ;
716 -> 718 ;
719 [label="gini = 0.0\nsamples = 1\nvalue = [0.528, 0.0]"] ;
713 -> 719 ;
720 [label="Sunrise_x <= 513.5\ngini = 0.027\nsamples = 5\nvalue = [0.528, 37.52]"] ;
710 -> 720 ;
721 [label="gini = 0.0\nsamples = 3\nvalue = [0.0, 28.14]"] ;
720 -> 721 ;
722 [label="IsPipiensRestuans <= 0.5\ngini = 0.101\nsamples = 2\nvalue = [0.528, 9.38]"] ;
720 -> 722 ;
723 [label="gini = 0.0\nsamples = 1\nvalue = [0.528, 0.0]"] ;
722 -> 723 ;
724 [label="gini = 0.0\nsamples = 1\nvalue = [0.0, 9.38]"] ;
722 -> 724 ;
725 [label="Trap_126 <= 0.5\ngini = 0.476\nsamples = 62\nvalue = [30.105, 46.901]"] ;
707 -> 725 ;
726 [label="Block_6 <= 0.5\ngini = 0.493\nsamples = 60\nvalue = [29.577, 37.52]"] ;
725 -> 726 ;
727 [label="Depart_x <= 8.5\ngini = 0.477\nsamples = 57\nvalue = [29.048, 18.76]"] ;
726 -> 727 ;
728 [label="Loc_4_4 <= 5.5\ngini = 0.461\nsamples = 22\nvalue = [10.563, 18.76]"] ;
727 -> 728 ;
729 [label="Trap_121 <= 0.5\ngini = 0.216\nsamples = 7\nvalue = [2.641, 18.76]"] ;
728 -> 729 ;
730 [label="Species_1 <= 0.5\ngini = 0.182\nsamples = 6\nvalue = [2.113, 18.76]"] ;
729 -> 730 ;
731 [label="gini = 0.0\nsamples = 3\nvalue = [1.584, 0.0]"] ;
730 -> 731 ;
732 [label="Loc_8_6 <= 22.0\ngini = 0.053\nsamples = 3\nvalue = [0.528, 18.76]"] ;
730 -> 732 ;
733 [label="Loc_6_4 <= 10.0\ngini = 0.101\nsamples = 2\nvalue = [0.528, 9.38]"] ;
732 -> 733 ;
734 [label="gini = 0.0\nsamples = 1\nvalue = [0.528, 0.0]"] ;
733 -> 734 ;
735 [label="gini = 0.0\nsamples = 1\nvalue = [0.0, 9.38]"] ;
733 -> 735 ;
736 [label="gini = 0.0\nsamples = 1\nvalue = [0.0, 9.38]"] ;
732 -> 736 ;
737 [label="gini = 0.0\nsamples = 1\nvalue = [0.528, 0.0]"] ;
729 -> 737 ;
738 [label="gini = 0.0\nsamples = 15\nvalue = [7.922, 0.0]"] ;
728 -> 738 ;
739 [label="gini = -0.0\nsamples = 35\nvalue = [18.485, 0.0]"] ;
727 -> 739 ;
740 [label="day_of_month <= 20.5\ngini = 0.053\nsamples = 3\nvalue = [0.528, 18.76]"] ;
726 -> 740 ;
741 [label="Species_2 <= 0.5\ngini = 0.101\nsamples = 2\nvalue = [0.528, 9.38]"] ;
740 -> 741 ;
742 [label="gini = 0.0\nsamples = 1\nvalue = [0.528, 0.0]"] ;
741 -> 742 ;
743 [label="gini = 0.0\nsamples = 1\nvalue = [0.0, 9.38]"] ;
741 -> 743 ;
744 [label="gini = 0.0\nsamples = 1\nvalue = [0.0, 9.38]"] ;
740 -> 744 ;
745 [label="IsRestuans <= 0.75\ngini = 0.101\nsamples = 2\nvalue = [0.528, 9.38]"] ;
725 -> 745 ;
746 [label="gini = 0.0\nsamples = 1\nvalue = [0.0, 9.38]"] ;
745 -> 746 ;
747 [label="gini = 0.0\nsamples = 1\nvalue = [0.528, 0.0]"] ;
745 -> 747 ;
748 [label="gini = -0.0\nsamples = 4\nvalue = [2.113, 0.0]"] ;
486 -> 748 ;
749 [label="gini = -0.0\nsamples = 9\nvalue = [4.753, 0.0]"] ;
485 -> 749 ;
750 [label="DayLength_MPrec <= 13.567\ngini = 0.42\nsamples = 682\nvalue = [318.476, 741.028]"] ;
484 -> 750 ;
751 [label="Tmin_y <= 59.0\ngini = 0.47\nsamples = 352\nvalue = [170.065, 281.403]"] ;
750 -> 751 ;
752 [label="gini = 0.0\nsamples = 17\nvalue = [8.979, 0.0]"] ;
751 -> 752 ;
753 [label="AvgSpeed_y <= 7.0\ngini = 0.463\nsamples = 335\nvalue = [161.087, 281.403]"] ;
751 -> 753 ;
754 [label="Trap_58 <= 0.5\ngini = 0.397\nsamples = 115\nvalue = [52.815, 140.702]"] ;
753 -> 754 ;
755 [label="Longitude_std <= 0.828\ngini = 0.389\nsamples = 111\nvalue = [50.703, 140.702]"] ;
754 -> 755 ;
756 [label="Trap_61 <= 0.5\ngini = 0.3\nsamples = 55\nvalue = [23.239, 103.181]"] ;
755 -> 756 ;
757 [label="Trap_36 <= 0.5\ngini = 0.287\nsamples = 52\nvalue = [21.654, 103.181]"] ;
756 -> 757 ;
758 [label="Trap_128 <= 0.5\ngini = 0.273\nsamples = 49\nvalue = [20.07, 103.181]"] ;
757 -> 758 ;
759 [label="Loc_8_8 <= 45.5\ngini = 0.258\nsamples = 46\nvalue = [18.485, 103.181]"] ;
758 -> 759 ;
760 [label="Street_63 <= 0.5\ngini = 0.242\nsamples = 43\nvalue = [16.901, 103.181]"] ;
759 -> 760 ;
761 [label="Block_6 <= 0.5\ngini = 0.236\nsamples = 42\nvalue = [16.373, 103.181]"] ;
760 -> 761 ;
762 [label="Street_92 <= 0.5\ngini = 0.219\nsamples = 39\nvalue = [14.788, 103.181]"] ;
761 -> 762 ;
763 [label="Trap_122 <= 0.5\ngini = 0.213\nsamples = 38\nvalue = [14.26, 103.181]"] ;
762 -> 763 ;
764 [label="Street_112 <= 0.5\ngini = 0.201\nsamples = 36\nvalue = [13.204, 103.181]"] ;
763 -> 764 ;
765 [label="ResultDir_x <= 14.5\ngini = 0.188\nsamples = 34\nvalue = [12.148, 103.181]"] ;
764 -> 765 ;
766 [label="Loc_6_4 <= 23.0\ngini = 0.247\nsamples = 16\nvalue = [6.338, 37.52]"] ;
765 -> 766 ;
767 [label="Loc_10_8 <= 40.5\ngini = 0.2\nsamples = 13\nvalue = [4.753, 37.52]"] ;
766 -> 767 ;
768 [label="Loc_4_4 <= 4.5\ngini = 0.101\nsamples = 6\nvalue = [1.584, 28.14]"] ;
767 -> 768 ;
769 [label="Block_0 <= 0.5\ngini = 0.144\nsamples = 5\nvalue = [1.584, 18.76]"] ;
768 -> 769 ;
770 [label="IsPipiens <= 0.75\ngini = 0.182\nsamples = 3\nvalue = [1.056, 9.38]"] ;
769 -> 770 ;
771 [label="gini = 0.101\nsamples = 2\nvalue = [0.528, 9.38]"] ;
770 -> 771 ;
772 [label="gini = 0.0\nsamples = 1\nvalue = [0.528, 0.0]"] ;
770 -> 772 ;
773 [label="IsPipiens <= 0.75\ngini = 0.101\nsamples = 2\nvalue = [0.528, 9.38]"] ;
769 -> 773 ;
774 [label="gini = 0.0\nsamples = 1\nvalue = [0.0, 9.38]"] ;
773 -> 774 ;
775 [label="gini = 0.0\nsamples = 1\nvalue = [0.528, 0.0]"] ;
773 -> 775 ;
776 [label="gini = 0.0\nsamples = 1\nvalue = [0.0, 9.38]"] ;
768 -> 776 ;
777 [label="IsPipiens <= 0.25\ngini = 0.378\nsamples = 7\nvalue = [3.169, 9.38]"] ;
767 -> 777 ;
778 [label="gini = 0.0\nsamples = 1\nvalue = [0.0, 9.38]"] ;
777 -> 778 ;
779 [label="gini = 0.0\nsamples = 6\nvalue = [3.169, 0.0]"] ;
777 -> 779 ;
780 [label="gini = -0.0\nsamples = 3\nvalue = [1.584, 0.0]"] ;
766 -> 780 ;
781 [label="Block_24 <= 0.5\ngini = 0.149\nsamples = 18\nvalue = [5.81, 65.661]"] ;
765 -> 781 ;
782 [label="Loc_8_2 <= 13.0\ngini = 0.138\nsamples = 17\nvalue = [5.282, 65.661]"] ;
781 -> 782 ;
783 [label="Species_1 <= 0.5\ngini = 0.343\nsamples = 6\nvalue = [2.641, 9.38]"] ;
782 -> 783 ;
784 [label="gini = 0.0\nsamples = 3\nvalue = [1.584, 0.0]"] ;
783 -> 784 ;
785 [label="AvgSpeed_y <= 6.35\ngini = 0.182\nsamples = 3\nvalue = [1.056, 9.38]"] ;
783 -> 785 ;
786 [label="gini = 0.0\nsamples = 1\nvalue = [0.528, 0.0]"] ;
785 -> 786 ;
787 [label="Longitude_std <= 0.527\ngini = 0.101\nsamples = 2\nvalue = [0.528, 9.38]"] ;
785 -> 787 ;
788 [label="gini = 0.0\nsamples = 1\nvalue = [0.528, 0.0]"] ;
787 -> 788 ;
789 [label="gini = 0.0\nsamples = 1\nvalue = [0.0, 9.38]"] ;
787 -> 789 ;
790 [label="Loc_10_6 <= 38.5\ngini = 0.086\nsamples = 11\nvalue = [2.641, 56.281]"] ;
782 -> 790 ;
791 [label="gini = 0.0\nsamples = 1\nvalue = [0.0, 9.38]"] ;
790 -> 791 ;
792 [label="Trap_39 <= 0.5\ngini = 0.101\nsamples = 10\nvalue = [2.641, 46.901]"] ;
790 -> 792 ;
793 [label="Loc_2_2 <= 2.0\ngini = 0.144\nsamples = 5\nvalue = [1.584, 18.76]"] ;
792 -> 793 ;
794 [label="Tmax_x <= 88.0\ngini = 0.101\nsamples = 2\nvalue = [0.528, 9.38]"] ;
793 -> 794 ;
795 [label="gini = 0.0\nsamples = 1\nvalue = [0.528, 0.0]"] ;
794 -> 795 ;
796 [label="gini = 0.0\nsamples = 1\nvalue = [0.0, 9.38]"] ;
794 -> 796 ;
797 [label="Species_1 <= 0.5\ngini = 0.182\nsamples = 3\nvalue = [1.056, 9.38]"] ;
793 -> 797 ;
798 [label="Loc_6_10 <= 24.5\ngini = 0.101\nsamples = 2\nvalue = [0.528, 9.38]"] ;
797 -> 798 ;
799 [label="gini = 0.0\nsamples = 1\nvalue = [0.528, 0.0]"] ;
798 -> 799 ;
800 [label="gini = 0.0\nsamples = 1\nvalue = [0.0, 9.38]"] ;
798 -> 800 ;
801 [label="gini = 0.0\nsamples = 1\nvalue = [0.528, 0.0]"] ;
797 -> 801 ;
802 [label="IsPipiensRestuans <= 0.5\ngini = 0.07\nsamples = 5\nvalue = [1.056, 28.14]"] ;
792 -> 802 ;
803 [label="IsPipiens <= 0.5\ngini = 0.053\nsamples = 3\nvalue = [0.528, 18.76]"] ;
802 -> 803 ;
804 [label="gini = 0.0\nsamples = 1\nvalue = [0.528, 0.0]"] ;
803 -> 804 ;
805 [label="gini = 0.0\nsamples = 2\nvalue = [0.0, 18.76]"] ;
803 -> 805 ;
806 [label="gini = 0.101\nsamples = 2\nvalue = [0.528, 9.38]"] ;
802 -> 806 ;
807 [label="gini = 0.0\nsamples = 1\nvalue = [0.528, 0.0]"] ;
781 -> 807 ;
808 [label="gini = 0.0\nsamples = 2\nvalue = [1.056, 0.0]"] ;
764 -> 808 ;
809 [label="gini = 0.0\nsamples = 2\nvalue = [1.056, 0.0]"] ;
763 -> 809 ;
810 [label="gini = 0.0\nsamples = 1\nvalue = [0.528, 0.0]"] ;
762 -> 810 ;
811 [label="gini = 0.0\nsamples = 3\nvalue = [1.584, 0.0]"] ;
761 -> 811 ;
812 [label="gini = 0.0\nsamples = 1\nvalue = [0.528, 0.0]"] ;
760 -> 812 ;
813 [label="gini = 0.0\nsamples = 3\nvalue = [1.584, 0.0]"] ;
759 -> 813 ;
814 [label="gini = 0.0\nsamples = 3\nvalue = [1.584, 0.0]"] ;
758 -> 814 ;
815 [label="gini = 0.0\nsamples = 3\nvalue = [1.584, 0.0]"] ;
757 -> 815 ;
816 [label="gini = 0.0\nsamples = 3\nvalue = [1.584, 0.0]"] ;
756 -> 816 ;
817 [label="Loc_10_8 <= 21.5\ngini = 0.488\nsamples = 56\nvalue = [27.464, 37.52]"] ;
755 -> 817 ;
818 [label="IsPipiens <= 0.75\ngini = 0.392\nsamples = 30\nvalue = [13.732, 37.52]"] ;
817 -> 818 ;
819 [label="Loc_6_6 <= 4.5\ngini = 0.144\nsamples = 5\nvalue = [1.584, 18.76]"] ;
818 -> 819 ;
820 [label="gini = 0.0\nsamples = 2\nvalue = [1.056, 0.0]"] ;
819 -> 820 ;
821 [label="ResultDir_y <= 13.5\ngini = 0.053\nsamples = 3\nvalue = [0.528, 18.76]"] ;
819 -> 821 ;
822 [label="gini = 0.0\nsamples = 2\nvalue = [0.0, 18.76]"] ;
821 -> 822 ;
823 [label="gini = 0.0\nsamples = 1\nvalue = [0.528, 0.0]"] ;
821 -> 823 ;
824 [label="Sunrise_x <= 521.5\ngini = 0.477\nsamples = 25\nvalue = [12.148, 18.76]"] ;
818 -> 824 ;
825 [label="Sunrise_x <= 517.5\ngini = 0.461\nsamples = 22\nvalue = [10.563, 18.76]"] ;
824 -> 825 ;
826 [label="gini = 0.0\nsamples = 3\nvalue = [1.584, 0.0]"] ;
825 -> 826 ;
827 [label="gini = 0.438\nsamples = 19\nvalue = [8.979, 18.76]"] ;
825 -> 827 ;
828 [label="gini = 0.0\nsamples = 3\nvalue = [1.584, 0.0]"] ;
824 -> 828 ;
829 [label="gini = -0.0\nsamples = 26\nvalue = [13.732, 0.0]"] ;
817 -> 829 ;
830 [label="gini = -0.0\nsamples = 4\nvalue = [2.113, 0.0]"] ;
754 -> 830 ;
831 [label="month <= 8.5\ngini = 0.492\nsamples = 220\nvalue = [108.271, 140.702]"] ;
753 -> 831 ;
832 [label="Trap_82 <= 0.5\ngini = 0.476\nsamples = 124\nvalue = [60.209, 93.801]"] ;
831 -> 832 ;
833 [label="Loc_4_10 <= 12.5\ngini = 0.456\nsamples = 85\nvalue = [40.668, 75.041]"] ;
832 -> 833 ;
834 [label="Loc_10_10 <= 27.5\ngini = 0.423\nsamples = 70\nvalue = [32.745, 75.041]"] ;
833 -> 834 ;
835 [label="Latitude_std <= -1.153\ngini = 0.486\nsamples = 41\nvalue = [20.07, 28.14]"] ;
834 -> 835 ;
836 [label="PrecipTotal_x <= 0.12\ngini = 0.461\nsamples = 33\nvalue = [15.845, 28.14]"] ;
835 -> 836 ;
837 [label="ResultSpeed_y <= 8.05\ngini = 0.441\nsamples = 29\nvalue = [13.732, 28.14]"] ;
836 -> 837 ;
838 [label="Loc_8_4 <= 7.0\ngini = 0.477\nsamples = 25\nvalue = [12.148, 18.76]"] ;
837 -> 838 ;
839 [label="gini = 0.0\nsamples = 8\nvalue = [4.225, 0.0]"] ;
838 -> 839 ;
840 [label="Trap_79 <= 0.5\ngini = 0.418\nsamples = 17\nvalue = [7.922, 18.76]"] ;
838 -> 840 ;
841 [label="Species_2 <= 0.5\ngini = 0.378\nsamples = 7\nvalue = [3.169, 9.38]"] ;
840 -> 841 ;
842 [label="gini = 0.3\nsamples = 5\nvalue = [2.113, 9.38]"] ;
841 -> 842 ;
843 [label="gini = 0.0\nsamples = 2\nvalue = [1.056, 0.0]"] ;
841 -> 843 ;
844 [label="Species_1 <= 0.5\ngini = 0.446\nsamples = 10\nvalue = [4.753, 9.38]"] ;
840 -> 844 ;
845 [label="gini = 0.0\nsamples = 3\nvalue = [1.584, 0.0]"] ;
844 -> 845 ;
846 [label="gini = 0.378\nsamples = 7\nvalue = [3.169, 9.38]"] ;
844 -> 846 ;
847 [label="IsPipiensRestuans <= 0.5\ngini = 0.247\nsamples = 4\nvalue = [1.584, 9.38]"] ;
837 -> 847 ;
848 [label="gini = 0.0\nsamples = 3\nvalue = [1.584, 0.0]"] ;
847 -> 848 ;
849 [label="gini = 0.0\nsamples = 1\nvalue = [0.0, 9.38]"] ;
847 -> 849 ;
850 [label="gini = -0.0\nsamples = 4\nvalue = [2.113, 0.0]"] ;
836 -> 850 ;
851 [label="gini = -0.0\nsamples = 8\nvalue = [4.225, 0.0]"] ;
835 -> 851 ;
852 [label="Loc_4_6 <= 7.5\ngini = 0.335\nsamples = 29\nvalue = [12.676, 46.901]"] ;
834 -> 852 ;
853 [label="Cool_x <= 12.0\ngini = 0.496\nsamples = 16\nvalue = [7.922, 9.38]"] ;
852 -> 853 ;
854 [label="gini = 0.0\nsamples = 5\nvalue = [2.641, 0.0]"] ;
853 -> 854 ;
855 [label="Species_2 <= 0.5\ngini = 0.461\nsamples = 11\nvalue = [5.282, 9.38]"] ;
853 -> 855 ;
856 [label="gini = 0.428\nsamples = 9\nvalue = [4.225, 9.38]"] ;
855 -> 856 ;
857 [label="gini = 0.0\nsamples = 2\nvalue = [1.056, 0.0]"] ;
855 -> 857 ;
858 [label="Cool_y <= 12.5\ngini = 0.2\nsamples = 13\nvalue = [4.753, 37.52]"] ;
852 -> 858 ;
859 [label="Trap_57 <= 0.5\ngini = 0.163\nsamples = 11\nvalue = [3.697, 37.52]"] ;
858 -> 859 ;
860 [label="Latitude_std <= -0.254\ngini = 0.144\nsamples = 10\nvalue = [3.169, 37.52]"] ;
859 -> 860 ;
861 [label="ResultDir_x <= 23.0\ngini = 0.101\nsamples = 8\nvalue = [2.113, 37.52]"] ;
860 -> 861 ;
862 [label="gini = 0.0\nsamples = 1\nvalue = [0.0, 9.38]"] ;
861 -> 862 ;
863 [label="Loc_10_10 <= 33.0\ngini = 0.13\nsamples = 7\nvalue = [2.113, 28.14]"] ;
861 -> 863 ;
864 [label="IsRestuans <= 0.25\ngini = 0.101\nsamples = 2\nvalue = [0.528, 9.38]"] ;
863 -> 864 ;
865 [label="gini = 0.0\nsamples = 1\nvalue = [0.0, 9.38]"] ;
864 -> 865 ;
866 [label="gini = 0.0\nsamples = 1\nvalue = [0.528, 0.0]"] ;
864 -> 866 ;
867 [label="Loc_2_8 <= 5.5\ngini = 0.144\nsamples = 5\nvalue = [1.584, 18.76]"] ;
863 -> 867 ;
868 [label="gini = 0.0\nsamples = 1\nvalue = [0.0, 9.38]"] ;
867 -> 868 ;
869 [label="Loc_10_4 <= 38.0\ngini = 0.247\nsamples = 4\nvalue = [1.584, 9.38]"] ;
867 -> 869 ;
870 [label="Street_79 <= 0.5\ngini = 0.182\nsamples = 3\nvalue = [1.056, 9.38]"] ;
869 -> 870 ;
871 [label="IsRestuans <= 0.25\ngini = 0.101\nsamples = 2\nvalue = [0.528, 9.38]"] ;
870 -> 871 ;
872 [label="gini = 0.0\nsamples = 1\nvalue = [0.0, 9.38]"] ;
871 -> 872 ;
873 [label="gini = 0.0\nsamples = 1\nvalue = [0.528, 0.0]"] ;
871 -> 873 ;
874 [label="gini = 0.0\nsamples = 1\nvalue = [0.528, 0.0]"] ;
870 -> 874 ;
875 [label="gini = 0.0\nsamples = 1\nvalue = [0.528, 0.0]"] ;
869 -> 875 ;
876 [label="gini = -0.0\nsamples = 2\nvalue = [1.056, 0.0]"] ;
860 -> 876 ;
877 [label="gini = -0.0\nsamples = 1\nvalue = [0.528, 0.0]"] ;
859 -> 877 ;
878 [label="gini = -0.0\nsamples = 2\nvalue = [1.056, 0.0]"] ;
858 -> 878 ;
879 [label="gini = 0.0\nsamples = 15\nvalue = [7.922, 0.0]"] ;
833 -> 879 ;
880 [label="Species_2 <= 0.5\ngini = 0.5\nsamples = 39\nvalue = [19.542, 18.76]"] ;
832 -> 880 ;
881 [label="Tavg_x <= 75.0\ngini = 0.451\nsamples = 35\nvalue = [17.957, 9.38]"] ;
880 -> 881 ;
882 [label="gini = 0.0\nsamples = 1\nvalue = [0.528, 0.0]"] ;
881 -> 882 ;
883 [label="gini = 0.455\nsamples = 34\nvalue = [17.429, 9.38]"] ;
881 -> 883 ;
884 [label="gini = 0.247\nsamples = 4\nvalue = [1.584, 9.38]"] ;
880 -> 884 ;
885 [label="Cool_y <= 9.0\ngini = 0.5\nsamples = 96\nvalue = [48.062, 46.901]"] ;
831 -> 885 ;
886 [label="Street_1 <= 0.5\ngini = 0.461\nsamples = 33\nvalue = [15.845, 28.14]"] ;
885 -> 886 ;
887 [label="Loc_4_8 <= 12.0\ngini = 0.452\nsamples = 31\nvalue = [14.788, 28.14]"] ;
886 -> 887 ;
888 [label="Loc_10_2 <= 11.0\ngini = 0.5\nsamples = 19\nvalue = [9.507, 9.38]"] ;
887 -> 888 ;
889 [label="Block_2 <= 0.5\ngini = 0.247\nsamples = 4\nvalue = [1.584, 9.38]"] ;
888 -> 889 ;
890 [label="gini = 0.0\nsamples = 2\nvalue = [1.056, 0.0]"] ;
889 -> 890 ;
891 [label="gini = 0.101\nsamples = 2\nvalue = [0.528, 9.38]"] ;
889 -> 891 ;
892 [label="gini = 0.0\nsamples = 15\nvalue = [7.922, 0.0]"] ;
888 -> 892 ;
893 [label="Loc_4_4 <= 10.5\ngini = 0.343\nsamples = 12\nvalue = [5.282, 18.76]"] ;
887 -> 893 ;
894 [label="Trap_128 <= 0.5\ngini = 0.3\nsamples = 10\nvalue = [4.225, 18.76]"] ;
893 -> 894 ;
895 [label="Long_int <= -8765.5\ngini = 0.247\nsamples = 8\nvalue = [3.169, 18.76]"] ;
894 -> 895 ;
896 [label="gini = 0.0\nsamples = 1\nvalue = [0.0, 9.38]"] ;
895 -> 896 ;
897 [label="Loc_10_6 <= 69.0\ngini = 0.378\nsamples = 7\nvalue = [3.169, 9.38]"] ;
895 -> 897 ;
898 [label="gini = 0.0\nsamples = 3\nvalue = [1.584, 0.0]"] ;
897 -> 898 ;
899 [label="IsPipiens <= 0.25\ngini = 0.247\nsamples = 4\nvalue = [1.584, 9.38]"] ;
897 -> 899 ;
900 [label="gini = 0.0\nsamples = 1\nvalue = [0.528, 0.0]"] ;
899 -> 900 ;
901 [label="IsRestuans <= 0.25\ngini = 0.182\nsamples = 3\nvalue = [1.056, 9.38]"] ;
899 -> 901 ;
902 [label="gini = 0.0\nsamples = 1\nvalue = [0.528, 0.0]"] ;
901 -> 902 ;
903 [label="gini = 0.101\nsamples = 2\nvalue = [0.528, 9.38]"] ;
901 -> 903 ;
904 [label="gini = 0.0\nsamples = 2\nvalue = [1.056, 0.0]"] ;
894 -> 904 ;
905 [label="gini = 0.0\nsamples = 2\nvalue = [1.056, 0.0]"] ;
893 -> 905 ;
906 [label="gini = -0.0\nsamples = 2\nvalue = [1.056, 0.0]"] ;
886 -> 906 ;
907 [label="Sunset_x <= 1814.0\ngini = 0.465\nsamples = 63\nvalue = [32.217, 18.76]"] ;
885 -> 907 ;
908 [label="gini = 0.0\nsamples = 27\nvalue = [14.26, 0.0]"] ;
907 -> 908 ;
909 [label="Loc_4_6 <= 4.5\ngini = 0.5\nsamples = 36\nvalue = [17.957, 18.76]"] ;
907 -> 909 ;
910 [label="gini = 0.0\nsamples = 13\nvalue = [6.866, 0.0]"] ;
909 -> 910 ;
911 [label="Loc_2_8 <= 6.5\ngini = 0.467\nsamples = 23\nvalue = [11.091, 18.76]"] ;
909 -> 911 ;
912 [label="Species_3 <= 0.5\ngini = 0.406\nsamples = 8\nvalue = [3.697, 9.38]"] ;
911 -> 912 ;
913 [label="IsPipiensRestuans <= 0.5\ngini = 0.378\nsamples = 7\nvalue = [3.169, 9.38]"] ;
912 -> 913 ;
914 [label="gini = 0.343\nsamples = 6\nvalue = [2.641, 9.38]"] ;
913 -> 914 ;
915 [label="gini = 0.0\nsamples = 1\nvalue = [0.528, 0.0]"] ;
913 -> 915 ;
916 [label="gini = 0.0\nsamples = 1\nvalue = [0.528, 0.0]"] ;
912 -> 916 ;
917 [label="Street_4 <= 0.5\ngini = 0.493\nsamples = 15\nvalue = [7.394, 9.38]"] ;
911 -> 917 ;
918 [label="gini = 0.0\nsamples = 14\nvalue = [7.394, 0.0]"] ;
917 -> 918 ;
919 [label="gini = 0.0\nsamples = 1\nvalue = [0.0, 9.38]"] ;
917 -> 919 ;
920 [label="Sunrise_x <= 457.5\ngini = 0.369\nsamples = 330\nvalue = [148.411, 459.625]"] ;
750 -> 920 ;
921 [label="Block_6 <= 0.5\ngini = 0.5\nsamples = 79\nvalue = [39.611, 37.52]"] ;
920 -> 921 ;
922 [label="Latitude_std <= -0.169\ngini = 0.5\nsamples = 71\nvalue = [35.386, 37.52]"] ;
921 -> 922 ;
923 [label="Loc_10_4 <= 42.5\ngini = 0.485\nsamples = 54\nvalue = [26.408, 37.52]"] ;
922 -> 923 ;
924 [label="Loc_2_10 <= 8.5\ngini = 0.499\nsamples = 53\nvalue = [26.408, 28.14]"] ;
923 -> 924 ;
925 [label="Loc_2_6 <= 4.5\ngini = 0.456\nsamples = 32\nvalue = [15.316, 28.14]"] ;
924 -> 925 ;
926 [label="Longitude_std <= 0.828\ngini = 0.414\nsamples = 25\nvalue = [11.619, 28.14]"] ;
925 -> 926 ;
927 [label="gini = 0.0\nsamples = 11\nvalue = [5.81, 0.0]"] ;
926 -> 927 ;
928 [label="DayLength_MPrec <= 14.108\ngini = 0.284\nsamples = 14\nvalue = [5.81, 28.14]"] ;
926 -> 928 ;
929 [label="Species_2 <= 0.5\ngini = 0.343\nsamples = 6\nvalue = [2.641, 9.38]"] ;
928 -> 929 ;
930 [label="gini = 0.0\nsamples = 3\nvalue = [1.584, 0.0]"] ;
929 -> 930 ;
931 [label="Loc_10_4 <= 13.0\ngini = 0.182\nsamples = 3\nvalue = [1.056, 9.38]"] ;
929 -> 931 ;
932 [label="gini = 0.101\nsamples = 2\nvalue = [0.528, 9.38]"] ;
931 -> 932 ;
933 [label="gini = 0.0\nsamples = 1\nvalue = [0.528, 0.0]"] ;
931 -> 933 ;
934 [label="Trap_82 <= 0.5\ngini = 0.247\nsamples = 8\nvalue = [3.169, 18.76]"] ;
928 -> 934 ;
935 [label="IsPipiens <= 0.75\ngini = 0.144\nsamples = 5\nvalue = [1.584, 18.76]"] ;
934 -> 935 ;
936 [label="Loc_6_10 <= 17.0\ngini = 0.101\nsamples = 4\nvalue = [1.056, 18.76]"] ;
935 -> 936 ;
937 [label="Species_2 <= 0.5\ngini = 0.053\nsamples = 3\nvalue = [0.528, 18.76]"] ;
936 -> 937 ;
938 [label="gini = 0.0\nsamples = 1\nvalue = [0.0, 9.38]"] ;
937 -> 938 ;
939 [label="Loc_2_10 <= 7.5\ngini = 0.101\nsamples = 2\nvalue = [0.528, 9.38]"] ;
937 -> 939 ;
940 [label="gini = 0.0\nsamples = 1\nvalue = [0.0, 9.38]"] ;
939 -> 940 ;
941 [label="gini = 0.0\nsamples = 1\nvalue = [0.528, 0.0]"] ;
939 -> 941 ;
942 [label="gini = 0.0\nsamples = 1\nvalue = [0.528, 0.0]"] ;
936 -> 942 ;
943 [label="gini = 0.0\nsamples = 1\nvalue = [0.528, 0.0]"] ;
935 -> 943 ;
944 [label="gini = 0.0\nsamples = 3\nvalue = [1.584, 0.0]"] ;
934 -> 944 ;
945 [label="gini = -0.0\nsamples = 7\nvalue = [3.697, 0.0]"] ;
925 -> 945 ;
946 [label="gini = -0.0\nsamples = 21\nvalue = [11.091, 0.0]"] ;
924 -> 946 ;
947 [label="gini = 0.0\nsamples = 1\nvalue = [0.0, 9.38]"] ;
923 -> 947 ;
948 [label="gini = 0.0\nsamples = 17\nvalue = [8.979, 0.0]"] ;
922 -> 948 ;
949 [label="gini = 0.0\nsamples = 8\nvalue = [4.225, 0.0]"] ;
921 -> 949 ;
950 [label="Block_53 <= 0.5\ngini = 0.326\nsamples = 251\nvalue = [108.799, 422.105]"] ;
920 -> 950 ;
951 [label="Trap_76 <= 0.5\ngini = 0.321\nsamples = 246\nvalue = [106.159, 422.105]"] ;
950 -> 951 ;
952 [label="Street_48 <= 0.5\ngini = 0.318\nsamples = 243\nvalue = [104.574, 422.105]"] ;
951 -> 952 ;
953 [label="Loc_10_6 <= 44.5\ngini = 0.308\nsamples = 233\nvalue = [99.293, 422.105]"] ;
952 -> 953 ;
954 [label="Block_23 <= 0.5\ngini = 0.296\nsamples = 211\nvalue = [88.73, 403.344]"] ;
953 -> 954 ;
955 [label="PrecipTotal_y <= 0.005\ngini = 0.293\nsamples = 209\nvalue = [87.673, 403.344]"] ;
954 -> 955 ;
956 [label="Street_96 <= 0.5\ngini = 0.328\nsamples = 124\nvalue = [53.872, 206.362]"] ;
955 -> 956 ;
957 [label="Loc_4_4 <= 6.5\ngini = 0.345\nsamples = 121\nvalue = [53.343, 187.602]"] ;
956 -> 957 ;
958 [label="Block_58 <= 0.5\ngini = 0.331\nsamples = 114\nvalue = [49.646, 187.602]"] ;
957 -> 958 ;
959 [label="Trap_67 <= 0.5\ngini = 0.325\nsamples = 111\nvalue = [48.062, 187.602]"] ;
958 -> 959 ;
960 [label="Long_int <= -8764.5\ngini = 0.318\nsamples = 108\nvalue = [46.477, 187.602]"] ;
959 -> 960 ;
961 [label="gini = 0.0\nsamples = 2\nvalue = [0.0, 18.76]"] ;
960 -> 961 ;
962 [label="IsOther <= 0.5\ngini = 0.339\nsamples = 106\nvalue = [46.477, 168.842]"] ;
960 -> 962 ;
963 [label="IsRestuans <= 0.75\ngini = 0.334\nsamples = 104\nvalue = [45.421, 168.842]"] ;
962 -> 963 ;
964 [label="Block_0 <= 0.5\ngini = 0.332\nsamples = 103\nvalue = [44.893, 168.842]"] ;
963 -> 964 ;
965 [label="Street_3 <= 0.5\ngini = 0.3\nsamples = 75\nvalue = [31.689, 140.702]"] ;
964 -> 965 ;
966 [label="Street_4 <= 0.5\ngini = 0.294\nsamples = 73\nvalue = [30.633, 140.702]"] ;
965 -> 966 ;
967 [label="Loc_6_10 <= 14.5\ngini = 0.27\nsamples = 66\nvalue = [26.936, 140.702]"] ;
966 -> 967 ;
968 [label="NightLength_MPrec <= 10.15\ngini = 0.262\nsamples = 64\nvalue = [25.879, 140.702]"] ;
967 -> 968 ;
969 [label="Lat_int <= 4171.0\ngini = 0.296\nsamples = 54\nvalue = [22.711, 103.181]"] ;
968 -> 969 ;
970 [label="ResultDir_x <= 12.5\ngini = 0.309\nsamples = 52\nvalue = [22.182, 93.801]"] ;
969 -> 970 ;
971 [label="Loc_8_8 <= 10.5\ngini = 0.295\nsamples = 49\nvalue = [20.598, 93.801]"] ;
970 -> 971 ;
972 [label="IsRestuans <= 0.25\ngini = 0.288\nsamples = 38\nvalue = [15.845, 75.041]"] ;
971 -> 972 ;
973 [label="gini = 0.307\nsamples = 36\nvalue = [15.316, 65.661]"] ;
972 -> 973 ;
974 [label="gini = 0.101\nsamples = 2\nvalue = [0.528, 9.38]"] ;
972 -> 974 ;
975 [label="gini = 0.323\nsamples = 11\nvalue = [4.753, 18.76]"] ;
971 -> 975 ;
976 [label="gini = 0.0\nsamples = 3\nvalue = [1.584, 0.0]"] ;
970 -> 976 ;
977 [label="Species_2 <= 0.5\ngini = 0.101\nsamples = 2\nvalue = [0.528, 9.38]"] ;
969 -> 977 ;
978 [label="gini = 0.0\nsamples = 1\nvalue = [0.528, 0.0]"] ;
977 -> 978 ;
979 [label="gini = 0.0\nsamples = 1\nvalue = [0.0, 9.38]"] ;
977 -> 979 ;
980 [label="Long_int <= -8754.0\ngini = 0.144\nsamples = 10\nvalue = [3.169, 37.52]"] ;
968 -> 980 ;
981 [label="gini = 0.0\nsamples = 1\nvalue = [0.528, 0.0]"] ;
980 -> 981 ;
982 [label="Species_1 <= 0.5\ngini = 0.123\nsamples = 9\nvalue = [2.641, 37.52]"] ;
980 -> 982 ;
983 [label="gini = 0.182\nsamples = 3\nvalue = [1.056, 9.38]"] ;
982 -> 983 ;
984 [label="gini = 0.101\nsamples = 6\nvalue = [1.584, 28.14]"] ;
982 -> 984 ;
985 [label="gini = -0.0\nsamples = 2\nvalue = [1.056, 0.0]"] ;
967 -> 985 ;
986 [label="gini = -0.0\nsamples = 7\nvalue = [3.697, 0.0]"] ;
966 -> 986 ;
987 [label="gini = -0.0\nsamples = 2\nvalue = [1.056, 0.0]"] ;
965 -> 987 ;
988 [label="ResultDir_y <= 16.0\ngini = 0.435\nsamples = 28\nvalue = [13.204, 28.14]"] ;
964 -> 988 ;
989 [label="gini = 0.406\nsamples = 16\nvalue = [7.394, 18.76]"] ;
988 -> 989 ;
990 [label="IsRestuans <= 0.25\ngini = 0.472\nsamples = 12\nvalue = [5.81, 9.38]"] ;
988 -> 990 ;
991 [label="gini = 0.428\nsamples = 9\nvalue = [4.225, 9.38]"] ;
990 -> 991 ;
992 [label="gini = 0.0\nsamples = 3\nvalue = [1.584, 0.0]"] ;
990 -> 992 ;
993 [label="gini = -0.0\nsamples = 1\nvalue = [0.528, 0.0]"] ;
963 -> 993 ;
994 [label="gini = -0.0\nsamples = 2\nvalue = [1.056, 0.0]"] ;
962 -> 994 ;
995 [label="gini = -0.0\nsamples = 3\nvalue = [1.584, 0.0]"] ;
959 -> 995 ;
996 [label="gini = -0.0\nsamples = 3\nvalue = [1.584, 0.0]"] ;
958 -> 996 ;
997 [label="gini = -0.0\nsamples = 7\nvalue = [3.697, 0.0]"] ;
957 -> 997 ;
998 [label="IsRestuans <= 0.25\ngini = 0.053\nsamples = 3\nvalue = [0.528, 18.76]"] ;
956 -> 998 ;
999 [label="gini = 0.0\nsamples = 1\nvalue = [0.528, 0.0]"] ;
998 -> 999 ;
1000 [label="gini = 0.0\nsamples = 2\nvalue = [0.0, 18.76]"] ;
998 -> 1000 ;
1001 [label="Street_57 <= 0.5\ngini = 0.25\nsamples = 85\nvalue = [33.802, 196.982]"] ;
955 -> 1001 ;
1002 [label="Block_2 <= 0.5\ngini = 0.244\nsamples = 83\nvalue = [32.745, 196.982]"] ;
1001 -> 1002 ;
1003 [label="Street_54 <= 0.5\ngini = 0.218\nsamples = 60\nvalue = [22.711, 159.462]"] ;
1002 -> 1003 ;
1004 [label="Species_4 <= 0.5\ngini = 0.214\nsamples = 59\nvalue = [22.182, 159.462]"] ;
1003 -> 1004 ;
1005 [label="Loc_6_10 <= 19.5\ngini = 0.211\nsamples = 58\nvalue = [21.654, 159.462]"] ;
1004 -> 1005 ;
1006 [label="Block_62 <= 0.5\ngini = 0.207\nsamples = 57\nvalue = [21.126, 159.462]"] ;
1005 -> 1006 ;
1007 [label="Loc_6_4 <= 8.5\ngini = 0.203\nsamples = 56\nvalue = [20.598, 159.462]"] ;
1006 -> 1007 ;
1008 [label="Latitude_std <= -1.397\ngini = 0.147\nsamples = 28\nvalue = [8.979, 103.181]"] ;
1007 -> 1008 ;
1009 [label="Trap_75 <= 0.5\ngini = 0.3\nsamples = 10\nvalue = [4.225, 18.76]"] ;
1008 -> 1009 ;
1010 [label="Street_5 <= 0.5\ngini = 0.406\nsamples = 8\nvalue = [3.697, 9.38]"] ;
1009 -> 1010 ;
1011 [label="Street_81 <= 0.5\ngini = 0.378\nsamples = 7\nvalue = [3.169, 9.38]"] ;
1010 -> 1011 ;
1012 [label="gini = 0.0\nsamples = 3\nvalue = [1.584, 0.0]"] ;
1011 -> 1012 ;
1013 [label="IsPipiensRestuans <= 0.5\ngini = 0.247\nsamples = 4\nvalue = [1.584, 9.38]"] ;
1011 -> 1013 ;
1014 [label="gini = 0.101\nsamples = 2\nvalue = [0.528, 9.38]"] ;
1013 -> 1014 ;
1015 [label="gini = -0.0\nsamples = 2\nvalue = [1.056, 0.0]"] ;
1013 -> 1015 ;
1016 [label="gini = 0.0\nsamples = 1\nvalue = [0.528, 0.0]"] ;
1010 -> 1016 ;
1017 [label="IsPipiensRestuans <= 0.5\ngini = 0.101\nsamples = 2\nvalue = [0.528, 9.38]"] ;
1009 -> 1017 ;
1018 [label="gini = 0.0\nsamples = 1\nvalue = [0.528, 0.0]"] ;
1017 -> 1018 ;
1019 [label="gini = 0.0\nsamples = 1\nvalue = [0.0, 9.38]"] ;
1017 -> 1019 ;
1020 [label="ResultDir_y <= 19.0\ngini = 0.101\nsamples = 18\nvalue = [4.753, 84.421]"] ;
1008 -> 1020 ;
1021 [label="Loc_2_10 <= 7.5\ngini = 0.182\nsamples = 6\nvalue = [2.113, 18.76]"] ;
1020 -> 1021 ;
1022 [label="Trap_67 <= 0.5\ngini = 0.247\nsamples = 4\nvalue = [1.584, 9.38]"] ;
1021 -> 1022 ;
1023 [label="gini = 0.0\nsamples = 2\nvalue = [1.056, 0.0]"] ;
1022 -> 1023 ;
1024 [label="IsRestuans <= 0.25\ngini = 0.101\nsamples = 2\nvalue = [0.528, 9.38]"] ;
1022 -> 1024 ;
1025 [label="gini = 0.0\nsamples = 1\nvalue = [0.0, 9.38]"] ;
1024 -> 1025 ;
1026 [label="gini = 0.0\nsamples = 1\nvalue = [0.528, 0.0]"] ;
1024 -> 1026 ;
1027 [label="Species_1 <= 0.5\ngini = 0.101\nsamples = 2\nvalue = [0.528, 9.38]"] ;
1021 -> 1027 ;
1028 [label="gini = 0.0\nsamples = 1\nvalue = [0.528, 0.0]"] ;
1027 -> 1028 ;
1029 [label="gini = 0.0\nsamples = 1\nvalue = [0.0, 9.38]"] ;
1027 -> 1029 ;
1030 [label="Long_int <= -8760.0\ngini = 0.074\nsamples = 12\nvalue = [2.641, 65.661]"] ;
1020 -> 1030 ;
1031 [label="Species_2 <= 0.5\ngini = 0.036\nsamples = 4\nvalue = [0.528, 28.14]"] ;
1030 -> 1031 ;
1032 [label="gini = 0.0\nsamples = 2\nvalue = [0.0, 18.76]"] ;
1031 -> 1032 ;
1033 [label="Street_52 <= 0.5\ngini = 0.101\nsamples = 2\nvalue = [0.528, 9.38]"] ;
1031 -> 1033 ;
1034 [label="gini = 0.0\nsamples = 1\nvalue = [0.528, 0.0]"] ;
1033 -> 1034 ;
1035 [label="gini = 0.0\nsamples = 1\nvalue = [0.0, 9.38]"] ;
1033 -> 1035 ;
1036 [label="Species_1 <= 0.5\ngini = 0.101\nsamples = 8\nvalue = [2.113, 37.52]"] ;
1030 -> 1036 ;
1037 [label="gini = 0.0\nsamples = 2\nvalue = [0.0, 18.76]"] ;
1036 -> 1037 ;
1038 [label="Block_22 <= 0.5\ngini = 0.182\nsamples = 6\nvalue = [2.113, 18.76]"] ;
1036 -> 1038 ;
1039 [label="gini = 0.144\nsamples = 5\nvalue = [1.584, 18.76]"] ;
1038 -> 1039 ;
1040 [label="gini = 0.0\nsamples = 1\nvalue = [0.528, 0.0]"] ;
1038 -> 1040 ;
1041 [label="Street_58 <= 0.5\ngini = 0.284\nsamples = 28\nvalue = [11.619, 56.281]"] ;
1007 -> 1041 ;
1042 [label="Loc_8_2 <= 21.0\ngini = 0.309\nsamples = 26\nvalue = [11.091, 46.901]"] ;
1041 -> 1042 ;
1043 [label="Loc_4_6 <= 7.0\ngini = 0.28\nsamples = 23\nvalue = [9.507, 46.901]"] ;
1042 -> 1043 ;
1044 [label="IsPipiensRestuans <= 0.5\ngini = 0.312\nsamples = 21\nvalue = [8.979, 37.52]"] ;
1043 -> 1044 ;
1045 [label="Trap_86 <= 0.5\ngini = 0.33\nsamples = 17\nvalue = [7.394, 28.14]"] ;
1044 -> 1045 ;
1046 [label="gini = 0.0\nsamples = 2\nvalue = [1.056, 0.0]"] ;
1045 -> 1046 ;
1047 [label="gini = 0.3\nsamples = 15\nvalue = [6.338, 28.14]"] ;
1045 -> 1047 ;
1048 [label="Loc_10_10 <= 23.5\ngini = 0.247\nsamples = 4\nvalue = [1.584, 9.38]"] ;
1044 -> 1048 ;
1049 [label="gini = 0.0\nsamples = 1\nvalue = [0.528, 0.0]"] ;
1048 -> 1049 ;
1050 [label="Loc_8_8 <= 14.5\ngini = 0.182\nsamples = 3\nvalue = [1.056, 9.38]"] ;
1048 -> 1050 ;
1051 [label="gini = 0.101\nsamples = 2\nvalue = [0.528, 9.38]"] ;
1050 -> 1051 ;
1052 [label="gini = 0.0\nsamples = 1\nvalue = [0.528, 0.0]"] ;
1050 -> 1052 ;
1053 [label="Species_2 <= 0.5\ngini = 0.101\nsamples = 2\nvalue = [0.528, 9.38]"] ;
1043 -> 1053 ;
1054 [label="gini = 0.0\nsamples = 1\nvalue = [0.0, 9.38]"] ;
1053 -> 1054 ;
1055 [label="gini = 0.0\nsamples = 1\nvalue = [0.528, 0.0]"] ;
1053 -> 1055 ;
1056 [label="gini = -0.0\nsamples = 3\nvalue = [1.584, 0.0]"] ;
1042 -> 1056 ;
1057 [label="Species_1 <= 0.5\ngini = 0.101\nsamples = 2\nvalue = [0.528, 9.38]"] ;
1041 -> 1057 ;
1058 [label="gini = 0.0\nsamples = 1\nvalue = [0.0, 9.38]"] ;
1057 -> 1058 ;
1059 [label="gini = 0.0\nsamples = 1\nvalue = [0.528, 0.0]"] ;
1057 -> 1059 ;
1060 [label="gini = -0.0\nsamples = 1\nvalue = [0.528, 0.0]"] ;
1006 -> 1060 ;
1061 [label="gini = -0.0\nsamples = 1\nvalue = [0.528, 0.0]"] ;
1005 -> 1061 ;
1062 [label="gini = -0.0\nsamples = 1\nvalue = [0.528, 0.0]"] ;
1004 -> 1062 ;
1063 [label="gini = -0.0\nsamples = 1\nvalue = [0.528, 0.0]"] ;
1003 -> 1063 ;
1064 [label="Species_1 <= 0.5\ngini = 0.333\nsamples = 23\nvalue = [10.035, 37.52]"] ;
1002 -> 1064 ;
1065 [label="gini = 0.0\nsamples = 2\nvalue = [1.056, 0.0]"] ;
1064 -> 1065 ;
1066 [label="gini = 0.312\nsamples = 21\nvalue = [8.979, 37.52]"] ;
1064 -> 1066 ;
1067 [label="gini = -0.0\nsamples = 2\nvalue = [1.056, 0.0]"] ;
1001 -> 1067 ;
1068 [label="gini = 0.0\nsamples = 2\nvalue = [1.056, 0.0]"] ;
954 -> 1068 ;
1069 [label="Loc_6_6 <= 24.5\ngini = 0.461\nsamples = 22\nvalue = [10.563, 18.76]"] ;
953 -> 1069 ;
1070 [label="gini = -0.0\nsamples = 12\nvalue = [6.338, 0.0]"] ;
1069 -> 1070 ;
1071 [label="Block_10 <= 0.5\ngini = 0.3\nsamples = 10\nvalue = [4.225, 18.76]"] ;
1069 -> 1071 ;
1072 [label="Tmin_x <= 62.0\ngini = 0.216\nsamples = 7\nvalue = [2.641, 18.76]"] ;
1071 -> 1072 ;
1073 [label="Latitude_std <= 0.692\ngini = 0.247\nsamples = 4\nvalue = [1.584, 9.38]"] ;
1072 -> 1073 ;
1074 [label="gini = 0.0\nsamples = 2\nvalue = [1.056, 0.0]"] ;
1073 -> 1074 ;
1075 [label="IsPipiens <= 0.75\ngini = 0.101\nsamples = 2\nvalue = [0.528, 9.38]"] ;
1073 -> 1075 ;
1076 [label="gini = 0.0\nsamples = 1\nvalue = [0.528, 0.0]"] ;
1075 -> 1076 ;
1077 [label="gini = 0.0\nsamples = 1\nvalue = [0.0, 9.38]"] ;
1075 -> 1077 ;
1078 [label="Street_127 <= 0.5\ngini = 0.182\nsamples = 3\nvalue = [1.056, 9.38]"] ;
1072 -> 1078 ;
1079 [label="gini = 0.0\nsamples = 2\nvalue = [1.056, 0.0]"] ;
1078 -> 1079 ;
1080 [label="gini = 0.0\nsamples = 1\nvalue = [0.0, 9.38]"] ;
1078 -> 1080 ;
1081 [label="gini = 0.0\nsamples = 3\nvalue = [1.584, 0.0]"] ;
1071 -> 1081 ;
1082 [label="gini = -0.0\nsamples = 10\nvalue = [5.282, 0.0]"] ;
952 -> 1082 ;
1083 [label="gini = -0.0\nsamples = 3\nvalue = [1.584, 0.0]"] ;
951 -> 1083 ;
1084 [label="gini = -0.0\nsamples = 5\nvalue = [2.641, 0.0]"] ;
950 -> 1084 ;
1085 [label="gini = -0.0\nsamples = 9\nvalue = [4.753, 0.0]"] ;
483 -> 1085 ;
1086 [label="gini = -0.0\nsamples = 15\nvalue = [7.922, 0.0]"] ;
482 -> 1086 ;
1087 [label="Trap_97 <= 0.5\ngini = 0.498\nsamples = 42\nvalue = [21.126, 18.76]"] ;
481 -> 1087 ;
1088 [label="Loc_4_6 <= 3.5\ngini = 0.43\nsamples = 40\nvalue = [20.598, 9.38]"] ;
1087 -> 1088 ;
1089 [label="Latitude_std <= -1.498\ngini = 0.247\nsamples = 4\nvalue = [1.584, 9.38]"] ;
1088 -> 1089 ;
1090 [label="gini = 0.0\nsamples = 2\nvalue = [1.056, 0.0]"] ;
1089 -> 1090 ;
1091 [label="Loc_8_2 <= 5.0\ngini = 0.101\nsamples = 2\nvalue = [0.528, 9.38]"] ;
1089 -> 1091 ;
1092 [label="gini = 0.0\nsamples = 1\nvalue = [0.0, 9.38]"] ;
1091 -> 1092 ;
1093 [label="gini = 0.0\nsamples = 1\nvalue = [0.528, 0.0]"] ;
1091 -> 1093 ;
1094 [label="gini = 0.0\nsamples = 36\nvalue = [19.014, 0.0]"] ;
1088 -> 1094 ;
1095 [label="IsRestuans <= 0.75\ngini = 0.101\nsamples = 2\nvalue = [0.528, 9.38]"] ;
1087 -> 1095 ;
1096 [label="gini = 0.0\nsamples = 1\nvalue = [0.0, 9.38]"] ;
1095 -> 1096 ;
1097 [label="gini = 0.0\nsamples = 1\nvalue = [0.528, 0.0]"] ;
1095 -> 1097 ;
1098 [label="Tmax_y <= 83.0\ngini = 0.438\nsamples = 305\nvalue = [156.861, 75.041]"] ;
480 -> 1098 ;
1099 [label="Cool_x <= 5.0\ngini = 0.5\nsamples = 136\nvalue = [68.132, 65.661]"] ;
1098 -> 1099 ;
1100 [label="gini = 0.0\nsamples = 58\nvalue = [30.633, 0.0]"] ;
1099 -> 1100 ;
1101 [label="Longitude_std <= -0.355\ngini = 0.463\nsamples = 78\nvalue = [37.499, 65.661]"] ;
1099 -> 1101 ;
1102 [label="gini = 0.0\nsamples = 14\nvalue = [7.394, 0.0]"] ;
1101 -> 1102 ;
1103 [label="Loc_10_8 <= 70.0\ngini = 0.431\nsamples = 64\nvalue = [30.105, 65.661]"] ;
1101 -> 1103 ;
1104 [label="Loc_10_10 <= 26.5\ngini = 0.487\nsamples = 55\nvalue = [26.936, 37.52]"] ;
1103 -> 1104 ;
1105 [label="Trap_73 <= 0.5\ngini = 0.232\nsamples = 15\nvalue = [5.81, 37.52]"] ;
1104 -> 1105 ;
1106 [label="Loc_6_8 <= 6.5\ngini = 0.216\nsamples = 14\nvalue = [5.282, 37.52]"] ;
1105 -> 1106 ;
1107 [label="gini = 0.0\nsamples = 4\nvalue = [2.113, 0.0]"] ;
1106 -> 1107 ;
1108 [label="Loc_4_4 <= 4.0\ngini = 0.144\nsamples = 10\nvalue = [3.169, 37.52]"] ;
1106 -> 1108 ;
1109 [label="Street_102 <= 0.5\ngini = 0.216\nsamples = 7\nvalue = [2.641, 18.76]"] ;
1108 -> 1109 ;
1110 [label="Longitude_std <= 1.689\ngini = 0.343\nsamples = 6\nvalue = [2.641, 9.38]"] ;
1109 -> 1110 ;
1111 [label="Street_5 <= 0.5\ngini = 0.247\nsamples = 4\nvalue = [1.584, 9.38]"] ;
1110 -> 1111 ;
1112 [label="gini = 0.0\nsamples = 1\nvalue = [0.528, 0.0]"] ;
1111 -> 1112 ;
1113 [label="IsRestuans <= 0.75\ngini = 0.182\nsamples = 3\nvalue = [1.056, 9.38]"] ;
1111 -> 1113 ;
1114 [label="gini = -0.0\nsamples = 2\nvalue = [1.056, 0.0]"] ;
1113 -> 1114 ;
1115 [label="gini = 0.0\nsamples = 1\nvalue = [0.0, 9.38]"] ;
1113 -> 1115 ;
1116 [label="gini = 0.0\nsamples = 2\nvalue = [1.056, 0.0]"] ;
1110 -> 1116 ;
1117 [label="gini = 0.0\nsamples = 1\nvalue = [0.0, 9.38]"] ;
1109 -> 1117 ;
1118 [label="Species_1 <= 0.5\ngini = 0.053\nsamples = 3\nvalue = [0.528, 18.76]"] ;
1108 -> 1118 ;
1119 [label="gini = 0.0\nsamples = 2\nvalue = [0.0, 18.76]"] ;
1118 -> 1119 ;
1120 [label="gini = 0.0\nsamples = 1\nvalue = [0.528, 0.0]"] ;
1118 -> 1120 ;
1121 [label="gini = -0.0\nsamples = 1\nvalue = [0.528, 0.0]"] ;
1105 -> 1121 ;
1122 [label="gini = -0.0\nsamples = 40\nvalue = [21.126, 0.0]"] ;
1104 -> 1122 ;
1123 [label="Loc_8_6 <= 47.5\ngini = 0.182\nsamples = 9\nvalue = [3.169, 28.14]"] ;
1103 -> 1123 ;
1124 [label="gini = 0.0\nsamples = 6\nvalue = [3.169, 0.0]"] ;
1123 -> 1124 ;
1125 [label="gini = 0.0\nsamples = 3\nvalue = [0.0, 28.14]"] ;
1123 -> 1125 ;
1126 [label="Loc_2_6 <= 4.5\ngini = 0.173\nsamples = 169\nvalue = [88.73, 9.38]"] ;
1098 -> 1126 ;
1127 [label="gini = 0.0\nsamples = 82\nvalue = [43.309, 0.0]"] ;
1126 -> 1127 ;
1128 [label="Latitude_std <= -1.003\ngini = 0.284\nsamples = 87\nvalue = [45.421, 9.38]"] ;
1126 -> 1128 ;
1129 [label="Cool_y <= 14.5\ngini = 0.387\nsamples = 51\nvalue = [26.408, 9.38]"] ;
1128 -> 1129 ;
1130 [label="gini = 0.0\nsamples = 12\nvalue = [6.338, 0.0]"] ;
1129 -> 1130 ;
1131 [label="Loc_4_10 <= 8.5\ngini = 0.434\nsamples = 39\nvalue = [20.07, 9.38]"] ;
1129 -> 1131 ;
1132 [label="IsPipiensRestuans <= 0.5\ngini = 0.5\nsamples = 18\nvalue = [8.979, 9.38]"] ;
1131 -> 1132 ;
1133 [label="Species_1 <= 0.5\ngini = 0.481\nsamples = 13\nvalue = [6.338, 9.38]"] ;
1132 -> 1133 ;
1134 [label="gini = 0.0\nsamples = 1\nvalue = [0.528, 0.0]"] ;
1133 -> 1134 ;
1135 [label="gini = 0.472\nsamples = 12\nvalue = [5.81, 9.38]"] ;
1133 -> 1135 ;
1136 [label="gini = 0.0\nsamples = 5\nvalue = [2.641, 0.0]"] ;
1132 -> 1136 ;
1137 [label="gini = -0.0\nsamples = 21\nvalue = [11.091, 0.0]"] ;
1131 -> 1137 ;
1138 [label="gini = -0.0\nsamples = 36\nvalue = [19.014, 0.0]"] ;
1128 -> 1138 ;
1139 [label="WetBulb_y <= 69.5\ngini = 0.362\nsamples = 116\nvalue = [60.209, 18.76]"] ;
479 -> 1139 ;
1140 [label="gini = 0.0\nsamples = 25\nvalue = [13.204, 0.0]"] ;
1139 -> 1140 ;
1141 [label="Block_35 <= 0.5\ngini = 0.408\nsamples = 91\nvalue = [47.006, 18.76]"] ;
1139 -> 1141 ;
1142 [label="Loc_8_6 <= 42.5\ngini = 0.414\nsamples = 88\nvalue = [45.421, 18.76]"] ;
1141 -> 1142 ;
1143 [label="Latitude_std <= -0.997\ngini = 0.32\nsamples = 72\nvalue = [37.499, 9.38]"] ;
